%YAML:1.0
---
opencv_ml_svm:
   format: 3
   svmType: C_SVC
   kernel:
      type: LINEAR
   C: 2.6699999999999999e+00
   term_criteria: { epsilon: 1.1920928955078125e-07, iterations: 1000 }
   var_count: 64
   class_count: 2
   class_labels: !!opencv-matrix
      rows: 2
      cols: 1
      dt: i
      data: [ 0, 1 ]
   sv_total: 1
   support_vectors:
      - [ 2.46192558e-05, 6.75921046e-06, 5.09874953e-05, 3.42427338e-05,
          -2.53630196e-06, -3.05284157e-05, -4.16860457e-05,
          -7.74701839e-05, 2.73400074e-05, -1.21001256e-04,
          3.80883030e-05, 3.94480003e-06, 3.35331242e-05,
          -2.86582926e-05, 1.07203778e-05, -1.30724147e-05,
          -8.44048409e-05, 6.07881557e-05, 8.10671263e-05,
          9.89848377e-06, -1.91781019e-05, 3.25663059e-05,
          -2.43899049e-05, -7.11711473e-05, -4.72958382e-05,
          9.66972293e-05, 8.98889557e-05, 1.10247647e-05,
          -3.04002083e-06, 1.43789177e-04, -4.73751097e-05,
          -4.90348721e-05, -3.99257187e-05, 3.94729832e-05,
          -4.90836137e-05, 5.30734760e-05, 3.35506156e-05,
          -2.95434456e-05, -3.37542260e-05, 3.81338250e-05,
          -3.53192554e-05, 1.47138335e-05, -4.44858379e-05,
          -1.77046206e-06, -1.86046054e-05, 2.62368521e-05,
          -3.27542803e-05, -7.11440298e-05, 2.83706831e-05,
          -6.42730301e-05, 3.13329620e-05, -9.33390675e-06,
          8.15044132e-06, -2.91898978e-05, 1.65937367e-04,
          -2.88724141e-06, -2.99052026e-05, 2.22328686e-06,
          -3.43325919e-05, 6.24398599e-05, -3.17183803e-05,
          6.04486813e-05, -7.82313437e-05, -1.77534297e-04 ]
   uncompressed_sv_total: 102
   uncompressed_support_vectors:
      - [ 2.54572241e+03, 1.04151477e+03, 7.63106812e+02, 5.82216736e+02,
          1.80486829e+03, 5.86530823e+02, 2.79876160e+02, 7.41139832e+02,
          1.28184119e+03, 3.99970734e+02, 4.11012085e+02, 2.46541977e+02,
          7.31055664e+02, 2.83253815e+02, 4.40436615e+02, 1.30671631e+03,
          3.34496094e+03, 3.30287109e+03, 2.07141626e+03, 6.89007227e+03,
          9.31614062e+03, 4.79616553e+03, 2.77234204e+03, 7.07508398e+03,
          1.18691260e+03, 1.28899463e+03, 9.11586670e+02, 5.36258496e+03,
          1.52845361e+04, 3.61150366e+03, 1.18863049e+03, 1.07008899e+03,
          7.22118213e+03, 9.98990906e+02, 1.80848401e+03, 5.73613770e+03,
          3.71594116e+03, 2.24272461e+03, 2.54082129e+03, 4.74519189e+03,
          7.18223047e+03, 4.52561084e+03, 4.68481348e+03, 5.65286230e+03,
          3.69481177e+03, 3.03114868e+03, 4.72489746e+03, 7.61171240e+03,
          2.26097480e+04, 7.93139648e+03, 8.05499854e+03, 9.31085254e+03,
          9.44707324e+03, 5.94706152e+03, 1.14653447e+04, 1.96452949e+04,
          1.41234951e+04, 5.61369678e+03, 1.70448230e+03, 6.66363037e+03,
          2.08407930e+04, 7.18027441e+03, 6.42017529e+03, 1.12733086e+04 ]
      - [ 1.03278702e+02, 4.29859009e+01, 2.68934479e+01, 7.07350388e+01,
          8.55655823e+01, 2.74732895e+01, 2.14426975e+01, 4.99868279e+01,
          3.93979889e+02, 7.97198853e+02, 4.69630035e+02, 1.80263977e+03,
          8.63081934e+03, 6.27092323e+01, 3.24859238e+01, 3.50648117e+01,
          2.21853784e+03, 3.41706200e+01, 7.08879395e+01, 6.18687805e+02,
          1.30724834e+04, 1.13171106e+03, 7.88122192e+02, 1.11057068e+03,
          6.87486511e+02, 2.79274567e+02, 2.35743729e+02, 1.35299512e+03,
          6.02391455e+03, 2.31866675e+03, 6.80758545e+03, 1.20686012e+02,
          5.75048291e+03, 3.56185474e+03, 2.63350415e+03, 2.37186597e+03,
          2.58447974e+03, 2.44158423e+03, 3.97886108e+03, 3.15621094e+03,
          8.74716602e+03, 4.55304883e+03, 2.40533154e+03, 8.37731348e+03,
          7.29123730e+03, 2.53928149e+03, 3.35040454e+03, 1.00663809e+04,
          2.13436973e+04, 5.15938867e+03, 4.43805518e+03, 1.60319102e+04,
          1.84569473e+04, 3.91319238e+03, 5.18960840e+03, 3.15150254e+04,
          2.40546851e+03, 3.70747241e+03, 5.39963867e+03, 7.55389600e+03,
          1.97065156e+04, 6.43850684e+03, 7.36889551e+03, 1.01485127e+04 ]
      - [ 9.99999905e+00, 7.88109665e+01, 6.50673828e+01, 1.84176727e+02,
          8.55331726e+02, 1.00802086e+02, 3.27010078e+01, 2.77677197e+03,
          5.75801123e+03, 2.54890762e+02, 4.38634262e+01, 0., 0., 0., 0.,
          0., 5.70144844e+01, 1.29417999e+02, 3.27154198e+01,
          1.26851133e+04, 2.34825449e+04, 2.53197192e+03, 7.40809021e+02,
          1.78371973e+04, 6.63581104e+03, 2.76213013e+03, 0.,
          1.42208574e+04, 1.91871699e+04, 4.32748833e+01, 1.13137074e+01,
          6.59011154e+01, 1.72617500e+04, 1.17781360e+03, 6.61857483e+02,
          9.58136902e+02, 1.89266211e+03, 1.70426636e+03, 8.82717163e+02,
          6.57618750e+03, 1.41960195e+04, 5.12564404e+03, 3.38936914e+03,
          1.05185938e+04, 2.14959824e+04, 1.08551062e+03, 3.83173511e+03,
          1.21430488e+04, 4.79206641e+04, 6.81737500e+03, 9.73766895e+03,
          1.53913193e+04, 4.32075234e+04, 1.63684404e+04, 2.10523105e+04,
          3.29633047e+04, 3.41904531e+04, 9.20532031e+03, 7.62162500e+03,
          1.55222256e+04, 2.23996699e+04, 6.14761377e+03, 8.50960156e+03,
          1.40220723e+04 ]
      - [ 1.21290137e+03, 1.60609534e+03, 1.62668628e+03, 1.71929480e+03,
          2.01247402e+04, 4.17887695e+02, 1.64805832e+02, 2.18156910e+01,
          2.92817719e+02, 3.68928558e+02, 1.40541626e+03, 8.44308289e+02,
          5.51183167e+02, 2.08678131e+02, 1.68510269e+02, 2.81738556e+02,
          1.95815808e+03, 1.65420190e+03, 9.07602783e+02, 6.75009460e+02,
          5.42551953e+03, 8.24923645e+02, 8.60463989e+02, 7.66492981e+02,
          6.88825195e+02, 4.78219818e+02, 6.25913635e+02, 1.44215039e+03,
          2.77939258e+04, 2.02500769e+03, 8.70355774e+02, 8.16703796e+02,
          9.19053125e+03, 1.79674109e+03, 1.57479846e+03, 4.33024756e+03,
          9.26844727e+03, 2.48067505e+03, 1.75753552e+03, 2.65910840e+03,
          9.57334766e+03, 3.12346533e+03, 4.12561865e+03, 5.12029932e+03,
          3.23346875e+03, 9.96015686e+02, 1.75573328e+03, 5.34386182e+03,
          1.03532217e+04, 4.45941846e+03, 4.20333984e+03, 8.23933984e+03,
          2.28102305e+04, 7.87042725e+03, 6.63656592e+03, 9.99843359e+03,
          1.56241240e+04, 4.89125000e+03, 3.56889819e+03, 7.64263623e+03,
          1.97359316e+04, 9.81735645e+03, 8.45884570e+03, 1.12347949e+04 ]
      - [ 3.45151611e+02, 1.33127014e+02, 1.11424484e+02, 4.17864532e+01,
          4.02885681e+02, 2.52203461e+02, 7.23107300e+02, 4.84533789e+03,
          3.67481348e+03, 4.15639954e+02, 6.12870483e+02, 5.13642700e+02,
          1.06620300e+03, 2.92058136e+02, 2.51754944e+02, 3.02808552e+01,
          2.35903610e+02, 2.84045349e+02, 3.40286194e+02, 4.19224023e+03,
          1.23862754e+04, 1.18894373e+03, 7.57031128e+02, 1.97285132e+03,
          2.73969604e+03, 1.32350366e+03, 3.53911865e+03, 6.27332275e+03,
          1.67501562e+04, 6.63308960e+02, 5.32425842e+02, 1.44153229e+02,
          4.53399561e+03, 1.31223364e+03, 1.40413953e+03, 1.57534009e+03,
          1.47045178e+03, 5.29351318e+02, 1.64291956e+03, 4.03110059e+03,
          3.39097046e+03, 1.55161621e+03, 1.45743213e+03, 1.87781445e+03,
          2.62665845e+03, 7.00467407e+02, 4.49957947e+02, 2.41649072e+03,
          9.36089648e+03, 4.29213379e+03, 2.91073022e+03, 7.69992432e+03,
          2.31293730e+04, 5.41204346e+03, 2.75369678e+03, 7.34315479e+03,
          7.13203613e+03, 4.82505078e+03, 5.93698682e+03, 1.31904229e+04,
          2.12486816e+04, 3.40273218e+03, 3.05738599e+03, 8.11264502e+03 ]
      - [ 3.03024963e+02, 5.09659958e+01, 4.40997192e+02, 8.03607666e+02,
          3.38726489e+03, 5.65203735e+02, 4.96320099e+02, 2.97560516e+02,
          8.61087524e+02, 7.43947449e+02, 7.51916504e+02, 3.79005310e+02,
          1.08711841e+03, 1.02849510e+02, 2.22775574e+02, 1.51292435e+02,
          3.28288666e+02, 2.75425323e+02, 4.61165466e+02, 4.66947949e+03,
          2.50977207e+04, 2.66436108e+03, 1.74288354e+03, 2.02480872e+03,
          1.70204407e+03, 1.22046887e+03, 1.11490918e+03, 4.88516650e+03,
          1.32535195e+04, 1.24215674e+03, 5.11327911e+02, 1.48293793e+02,
          6.39824902e+03, 2.47650708e+03, 1.56009814e+03, 1.19368530e+03,
          1.43033569e+03, 1.27214563e+03, 9.80439514e+02, 5.72099756e+03,
          5.65064551e+03, 5.86637085e+02, 7.19268738e+02, 1.04189587e+03,
          1.76670410e+03, 1.20063672e+03, 2.90692407e+03, 4.49693262e+03,
          1.25173350e+04, 9.29899023e+03, 7.36846533e+03, 1.89897324e+04,
          3.28957148e+04, 4.94341943e+03, 3.35919775e+03, 2.79059009e+03,
          9.60164355e+03, 5.80817432e+03, 3.48592480e+03, 7.65268701e+03,
          2.32559902e+04, 6.15468408e+03, 2.69333154e+03, 4.24340088e+03 ]
      - [ 6.96138721e+03, 3.94000415e+03, 1.12259973e+03, 4.50613770e+02,
          1.06054590e+03, 0., 0., 3.15951935e+02, 2.37138037e+03,
          1.49155688e+03, 1.39016159e+02, 6.49882568e+02, 1.59223767e+03,
          9.07020630e+02, 1.30857874e+03, 7.21688232e+03, 6.13922070e+03,
          2.10383545e+03, 4.12237842e+03, 1.42150869e+04, 1.08141641e+04,
          4.17559521e+03, 4.61076709e+03, 4.98663965e+03, 9.99701367e+03,
          1.47413818e+03, 4.44293396e+02, 6.09658142e+02, 2.65243237e+03,
          1.05080261e+03, 1.81532288e+03, 6.38803271e+03, 6.19089062e+03,
          7.33272018e+01, 1.43794693e+02, 5.19807892e+01, 2.31331024e+02,
          1.37538696e+02, 1.97479233e+02, 1.39382910e+03, 1.03124512e+04,
          5.11767969e+03, 4.99111328e+03, 6.91129004e+03, 1.21834404e+04,
          4.74612158e+03, 4.85945020e+03, 1.13604219e+04, 3.40925977e+04,
          2.14529961e+04, 1.30828838e+04, 1.53009053e+04, 1.68000938e+04,
          8.73249707e+03, 2.72468574e+04, 3.41952773e+04, 2.42024902e+04,
          1.26032490e+04, 8.65857812e+03, 7.73595410e+03, 1.38391279e+04,
          5.97129395e+03, 9.12306055e+03, 1.78507520e+04 ]
      - [ 3.91622772e+01, 7.56625519e+01, 2.64611914e+03, 4.22667871e+03,
          1.51245593e+03, 5.03771088e+02, 3.57084930e+02, 8.10674438e+01,
          3.88226288e+02, 7.93129959e+01, 1.46034744e+02, 1.30437149e+02,
          1.61071060e+02, 0., 0., 0., 2.52982216e+01, 2.96612415e+01,
          3.84133301e+02, 1.49235864e+03, 2.07802954e+03, 8.68414673e+02,
          8.73560486e+02, 2.67930493e+03, 1.04190381e+04, 8.68971582e+03,
          2.52107446e+03, 2.86966522e+02, 1.09123535e+03, 0., 0., 0.,
          5.46930115e+02, 7.65147827e+02, 2.46912598e+03, 1.60682703e+03,
          6.77495239e+02, 8.28926758e+02, 8.17325806e+02, 4.12672333e+02,
          2.05958398e+03, 7.56194775e+03, 3.93408374e+03, 1.52152454e+03,
          3.84585358e+02, 7.73920135e+01, 1.55563488e+01, 7.22317123e+01,
          5.82710205e+02, 1.88756482e+03, 1.46179333e+03, 3.67778503e+02,
          2.68165924e+02, 2.67760437e+02, 2.47018814e+02, 8.87325989e+02,
          9.84564355e+03, 1.22347715e+04, 3.86003931e+03, 6.63727722e+02,
          4.76074615e+02, 4.44802933e+01, 6.14622574e+01, 4.18787766e+01 ]
      - [ 3.22945068e+03, 1.26126923e+02, 8.47230835e+01, 1.01980381e+01,
          9.16548645e+02, 9.67470856e+01, 5.15479614e+02, 1.51720081e+03,
          2.26732202e+03, 2.69178174e+03, 3.51488013e+03, 1.86923767e+03,
          5.75474121e+03, 6.79626660e+03, 4.34565527e+03, 2.24387524e+03,
          1.75520527e+04, 1.31734951e+04, 6.12239844e+03, 5.86680518e+03,
          7.33367529e+03, 2.37501855e+03, 3.57328589e+03, 2.27863203e+04,
          9.54571387e+03, 1.15468457e+03, 7.46694214e+02, 9.25307556e+02,
          5.94888977e+02, 7.41906128e+02, 3.47869824e+03, 2.99413232e+03,
          4.85990430e+03, 2.20835107e+03, 1.33802039e+03, 1.46653491e+03,
          3.00174805e+03, 4.70338654e+02, 6.40500061e+02, 1.71968140e+03,
          6.62551074e+03, 6.09958594e+03, 1.52910889e+03, 1.42109204e+03,
          1.95192993e+03, 2.27762988e+03, 1.50054346e+03, 8.97786316e+02,
          1.04507803e+04, 1.21230293e+04, 1.24775859e+04, 2.00053340e+04,
          2.18287383e+04, 1.94865137e+04, 2.27699336e+04, 1.19621924e+04,
          1.82528965e+04, 6.75969580e+03, 7.18400586e+03, 5.67527832e+03,
          6.47596045e+03, 9.17996973e+03, 7.06068457e+03, 8.91169141e+03 ]
      - [ 1.51446472e+02, 7.56178970e+01, 3.23606796e+01, 1.57285263e+02,
          2.56364319e+02, 2.75141888e+01, 2.16721935e+01, 1.02333450e+01,
          1.43613281e+02, 1.17776833e+02, 1.89442711e+01, 2.72198753e+01,
          2.01875168e+02, 5.51388245e+01, 8.13832932e+01, 2.35634880e+01,
          2.41576831e+03, 4.32777686e+03, 4.37836084e+03, 4.17815527e+03,
          5.58826855e+03, 1.30553918e+03, 5.75216125e+02, 1.23605566e+03,
          9.76320251e+02, 5.15695190e+02, 6.52925781e+02, 2.08636035e+03,
          4.25624219e+03, 1.55556848e+03, 2.51856177e+03, 2.27391357e+03,
          1.58857263e+03, 1.23227551e+03, 7.18323669e+02, 5.49098450e+02,
          1.05653796e+03, 5.40791626e+02, 1.50410107e+03, 1.26880396e+03,
          2.35831079e+03, 4.33673584e+02, 3.84959778e+02, 1.50353455e+03,
          9.83094116e+02, 6.63168823e+02, 7.70868103e+02, 1.84760168e+03,
          9.52586328e+03, 8.93316016e+03, 5.32685107e+03, 8.41570801e+03,
          1.01208057e+04, 5.24461719e+03, 8.20408691e+03, 1.08290059e+04,
          1.35577959e+04, 6.14517773e+03, 5.21392432e+03, 6.37016260e+03,
          1.13361562e+04, 6.40873584e+03, 5.43142041e+03, 7.97039209e+03 ]
      - [ 2.27818555e+03, 1.23042224e+03, 9.64431580e+02, 3.29954773e+02,
          2.39071060e+02, 0., 1.14017534e+01, 0., 234., 1.78938004e+02,
          0., 1.76286602e+04, 1.46264697e+03, 5.98781052e+01,
          8.03392944e+01, 1.64065781e+02, 1.34878638e+03, 3.22514496e+02,
          2.44256897e+02, 7.66647797e+01, 1.79635086e+02, 4.68660355e+01,
          9.70931473e+01, 4.13261070e+01, 2.47894974e+02, 3.27631470e+02,
          5.07001831e+02, 5.77569238e+03, 4.47798633e+03, 1.82523962e+03,
          2.26902637e+03, 1.50558508e+03, 5.48602783e+02, 2.93611816e+02,
          4.62304535e+02, 5.42784790e+02, 5.83010376e+02, 1.06549561e+02,
          1.87779663e+02, 1.69565826e+02, 7.64728455e+02, 7.19935303e+02,
          3.08415747e+03, 5.33697891e+04, 3.29901245e+03, 3.95948059e+02,
          3.17105194e+02, 5.35833244e+01, 7.02617554e+02, 2.30789169e+02,
          8.39035568e+01, 1.21869408e+02, 3.10710659e+01, 5.23932838e+01,
          1.08107758e+02, 1.20010384e+02, 2.90710547e+03, 6.38158936e+03,
          3.76785425e+03, 3.27756348e+03, 4.40656982e+03, 2.56564087e+03,
          2.55384961e+03, 8.96020386e+02 ]
      - [ 1.92932007e+03, 1.15202576e+02, 1.10578354e+02, 1.20389046e+02,
          3.37701538e+02, 1.58113880e+01, 6.76472397e+01, 4.02095222e+01,
          1.80778351e+02, 1.99850128e+02, 7.18309479e+01, 1.64647090e+04,
          1.38149824e+04, 3.31509247e+02, 2.75454285e+02, 4.54571930e+02,
          3.40597260e+02, 2.01449738e+02, 5.74919556e+02, 2.56415308e+03,
          2.14548809e+04, 1.08471777e+03, 1.64151138e+02, 7.58035965e+01,
          3.99909088e+02, 5.80199829e+02, 6.84133179e+02, 2.06933936e+03,
          6.19448389e+03, 6.52681396e+02, 2.36003616e+02, 1.96697845e+01,
          4.99837012e+03, 9.75434692e+02, 3.99323792e+02, 1.23519592e+03,
          1.61153198e+03, 8.23613892e+02, 3.62284027e+02, 2.13881934e+03,
          7.14554248e+03, 3.16758545e+03, 3.19486084e+03, 3.52563594e+04,
          1.50345889e+04, 3.82892017e+03, 2.15408765e+03, 4.61068359e+03,
          2.89661987e+03, 1.94697583e+03, 1.30608362e+03, 5.12148096e+03,
          2.75193926e+04, 5.64933643e+03, 2.34779126e+03, 1.39250256e+03,
          4.85042383e+03, 2.40255835e+03, 9.34610535e+02, 3.22457959e+03,
          8.75813477e+03, 1.20367029e+03, 1.32310620e+03, 2.21944385e+03 ]
      - [ 8.97268906e+01, 5.46330109e+01, 2.19863243e+01, 8.32488327e+01,
          1.08646225e+02, 2.34164085e+01, 8.44902115e+01, 6.54506378e+01,
          6.13958252e+02, 4.17778259e+02, 4.51017273e+02, 1.30617517e+03,
          1.44688562e+03, 5.11552734e+01, 6.30889664e+01, 6.62719727e+01,
          1.11327600e+03, 3.10274384e+02, 1.58342606e+02, 4.15507782e+02,
          7.86405151e+02, 2.74886047e+02, 4.11280670e+02, 4.81108368e+02,
          2.80895782e+02, 1.26896408e+02, 1.10223808e+02, 1.00915871e+02,
          3.51962372e+02, 1.66841644e+02, 4.92559509e+02, 9.80929504e+02,
          9.01454883e+03, 5.27037842e+03, 5.89195166e+03, 7.03725781e+03,
          4.77878955e+03, 5.31863965e+03, 7.49273193e+03, 4.98856104e+03,
          1.90705737e+03, 7.28256714e+02, 6.71455933e+02, 5.55902832e+02,
          6.88371887e+02, 6.42292419e+02, 5.46188416e+02, 2.15661523e+03,
          2.77122656e+03, 7.06137268e+02, 1.10803772e+03, 8.84251770e+02,
          1.25086292e+03, 4.50734222e+02, 4.79753845e+02, 5.04787048e+02,
          6.57679590e+03, 3.81837256e+03, 4.71260889e+03, 1.07723203e+04,
          9.94218262e+03, 5.33468945e+03, 3.90551416e+03, 5.61827539e+03 ]
      - [ 5.85786011e+02, 3.84229889e+02, 1.47620316e+02, 1.92134705e+02,
          1.56703354e+02, 1.08832809e+02, 2.04847198e+02, 3.58891510e+02,
          3.30936249e+02, 5.06735413e+02, 4.56520416e+02, 2.13327087e+02,
          4.08990326e+02, 5.70280029e+02, 3.48774597e+02, 3.70581970e+02,
          4.08455371e+03, 3.71807983e+03, 1.38738000e+03, 8.94870117e+02,
          3.04783228e+03, 6.32744995e+02, 1.61659619e+03, 1.61430383e+03,
          8.25496582e+03, 6.78252539e+03, 2.11871729e+03, 8.31367371e+02,
          2.79188013e+03, 1.02854419e+03, 7.06888977e+02, 1.49216284e+03,
          1.78950623e+03, 2.09206982e+03, 2.90635193e+02, 1.38939282e+03,
          2.41182959e+03, 5.30812073e+02, 4.46435486e+02, 7.89530029e+02,
          1.37811230e+03, 1.09697363e+03, 8.13786316e+02, 1.19376392e+03,
          2.24714185e+03, 1.29898938e+03, 1.69235205e+03, 5.05471222e+02,
          1.59598462e+03, 7.94531543e+03, 8.21039673e+02, 1.04473096e+03,
          2.76857690e+03, 1.44073071e+03, 1.34404126e+03, 1.26024609e+03,
          2.04778894e+03, 2.08226587e+03, 2.07615771e+03, 2.64035254e+03,
          1.03950439e+04, 2.05403369e+03, 3.80824023e+03, 2.26135864e+03 ]
      - [ 9.13603134e+01, 4.93973732e+01, 1.86848049e+01, 9.32147827e+01,
          1.00515503e+02, 1.53203995e+02, 1.43009436e+03, 7.38189514e+02,
          3.28182910e+03, 4.84944580e+03, 4.38057080e+03, 4.73847607e+03,
          7.86437451e+03, 3.03641211e+03, 2.72033997e+01, 1.07703295e+01,
          1.79555396e+03, 1.82738904e+03, 2.72454565e+03, 3.17264722e+03,
          5.11893701e+03, 5.70547607e+03, 4.20799121e+03, 1.59544409e+03,
          2.80145483e+03, 3.51289819e+03, 4.14164893e+03, 2.26602759e+03,
          5.18356641e+03, 2.95889160e+03, 6.32608704e+02, 4.35524475e+02,
          8.31871094e+03, 3.23306061e+02, 1.85990295e+02, 1.59246658e+02,
          1.97855026e+02, 1.08192780e+02, 4.58879204e+01, 6.03846130e+01,
          3.03497253e+02, 5.24481201e+02, 5.43534912e+02, 7.17244141e+03,
          1.84910762e+04, 2.66342627e+03, 1.08804114e+03, 4.09738623e+03,
          9.48526953e+03, 5.40922412e+03, 5.26807666e+03, 4.83376025e+03,
          8.01873975e+03, 3.53559082e+03, 4.84991260e+03, 5.63398193e+03,
          6.20733838e+03, 5.58654150e+03, 5.39160107e+03, 6.43327002e+03,
          1.98020117e+04, 9.34929395e+03, 7.17550098e+03, 9.98971973e+03 ]
      - [ 1.04990820e+04, 4.25948096e+03, 5.05895508e+03, 2.37609619e+03,
          3.23469775e+03, 1.80613342e+03, 1.08670128e+02, 1.68159766e+03,
          4.07115991e+03, 2.39534058e+03, 3.89868311e+03, 1.08006824e+03,
          3.43654785e+03, 1.62557410e+03, 3.40949097e+03, 5.57235254e+03,
          2.34372441e+04, 2.35248965e+04, 7.27263477e+03, 5.34755322e+03,
          1.65078633e+04, 9.01654395e+03, 5.64837598e+03, 1.46357793e+04,
          2.33105605e+04, 3.95442725e+03, 5.03653076e+03, 1.32668701e+04,
          2.10045371e+04, 1.21744268e+04, 7.95564844e+03, 9.81095410e+03,
          8.56998145e+03, 1.94664905e+03, 2.05899316e+03, 1.80187683e+03,
          2.54586377e+03, 1.37249084e+03, 4.26715820e+03, 9.92955859e+03,
          1.32996191e+04, 7.63866113e+03, 1.92557239e+03, 7.02002783e+03,
          7.10185059e+03, 5.74001709e+03, 3.96225903e+03, 4.08650562e+03,
          1.80857578e+04, 1.28142959e+04, 8.67597070e+03, 2.07555371e+04,
          3.70175625e+04, 1.58216777e+04, 1.25519941e+04, 1.66467383e+04,
          3.86708750e+04, 9.34319727e+03, 7.83179980e+03, 1.16838496e+04,
          1.32235117e+04, 8.75379785e+03, 9.94842285e+03, 1.15494922e+04 ]
      - [ 8.68132812e+02, 3.72516998e+02, 7.87893433e+02, 1.16815051e+03,
          1.99139307e+03, 1.32880066e+03, 6.58516724e+02, 5.10253113e+02,
          5.96373108e+02, 1.43870728e+02, 7.17746124e+01, 5.43032722e+01,
          1.02616417e+02, 2.59161263e+01, 5.34619408e+01, 1.20241730e+02,
          1.41831177e+03, 7.22357056e+02, 6.01676697e+02, 8.83046448e+02,
          2.18571777e+03, 1.07016785e+03, 1.12537634e+03, 1.11881372e+03,
          3.32669189e+03, 2.22597998e+03, 1.76245203e+03, 1.72756775e+03,
          1.97518909e+03, 2.38319727e+03, 2.53816846e+03, 1.23769861e+03,
          7.24705713e+03, 3.56461011e+03, 3.19914478e+03, 7.94481396e+03,
          9.17483691e+03, 4.34672217e+03, 4.72804053e+03, 6.56709277e+03,
          5.69710938e+03, 1.43707996e+03, 1.37983704e+03, 9.89464722e+02,
          1.02060199e+03, 9.58283020e+02, 1.59736462e+03, 5.33595020e+03,
          8.92619043e+03, 3.84701758e+03, 3.00589038e+03, 3.32718506e+03,
          7.47728271e+03, 1.33567188e+03, 2.81112109e+03, 9.16850000e+03,
          1.10504463e+04, 6.31047168e+03, 4.23465869e+03, 7.37131006e+03,
          1.54875361e+04, 7.91945264e+03, 6.61441699e+03, 7.06608496e+03 ]
      - [ 2.41226733e+03, 1.48756128e+03, 2.62623438e+03, 3.78057129e+03,
          8.72400684e+03, 2.95417212e+03, 1.95737793e+03, 2.95894873e+03,
          9.09122754e+03, 7.57892920e+03, 6.36008154e+03, 1.05560830e+04,
          1.78030591e+03, 4.86004066e+01, 1.09224548e+02, 2.22741333e+02,
          3.36652588e+02, 1.89245575e+02, 1.13962732e+03, 1.95397620e+03,
          2.32725830e+03, 4.53711121e+02, 4.11338837e+02, 1.39396460e+03,
          3.95214136e+03, 2.79977588e+03, 4.06344141e+03, 3.81441089e+03,
          4.55125000e+03, 4.46620819e+02, 1.01927734e+03, 5.39500244e+02,
          3.23926147e+03, 4.99207245e+02, 1.38452173e+03, 1.38598596e+03,
          5.20889038e+02, 1.97537369e+02, 2.19804871e+02, 3.20787445e+02,
          3.68123096e+03, 1.71310400e+03, 2.65203638e+03, 1.33505127e+04,
          3.28422632e+03, 1.51375244e+03, 7.68020569e+02, 5.63902441e+03,
          5.27463770e+03, 4.59737695e+03, 5.45199805e+03, 3.84008521e+03,
          6.19077539e+03, 3.35231909e+03, 5.11366064e+03, 4.70307227e+03,
          5.90399561e+03, 7.14972217e+03, 3.93984692e+03, 8.09788379e+03,
          8.35662598e+03, 5.62396143e+03, 8.54056934e+03, 7.71338037e+03 ]
      - [ 5.18535522e+02, 4.26961578e+02, 5.45980835e+02, 1.49033997e+03,
          7.50813293e+02, 3.10051147e+02, 2.24862106e+02, 1.42905304e+02,
          3.17035645e+02, 1.50264496e+02, 3.76251602e+01, 1.31040207e+02,
          3.54907715e+02, 4.28773529e+02, 3.60299500e+02, 3.73945343e+02,
          3.92519714e+02, 4.02186493e+02, 1.50839673e+03, 2.23078174e+03,
          1.09537305e+03, 2.85021973e+02, 2.88654510e+02, 2.09307144e+02,
          4.08206451e+02, 3.44184082e+02, 2.10060547e+03, 3.00094336e+03,
          1.90834985e+03, 3.38715942e+02, 4.53962158e+02, 1.71093735e+02,
          1.56872891e+04, 4.11584521e+03, 6.10546826e+03, 1.52235029e+04,
          7.81339502e+03, 7.71026489e+02, 8.65333328e+01, 4.19803848e+01,
          1.24489136e+03, 8.97685623e+01, 3.95415955e+02, 1.12562969e+04,
          2.73672949e+04, 3.98500684e+03, 2.65984375e+03, 9.20458398e+03,
          1.32489587e+03, 1.29028552e+03, 8.41150574e+02, 1.38725415e+03,
          1.12221655e+03, 4.94424713e+02, 5.44137390e+02, 4.13580231e+02,
          6.39128540e+02, 7.72973633e+02, 1.08773853e+03, 3.50883862e+03,
          9.51018848e+03, 2.97832910e+03, 1.75931921e+03, 1.09548169e+03 ]
      - [ 8.25863342e+02, 9.41788147e+02, 2.70226746e+02, 2.10303802e+02,
          1.17681274e+03, 4.65280212e+02, 2.18261047e+02, 3.41760101e+01,
          2.31247656e+03, 5.70117188e+03, 4.16059082e+03, 5.79116748e+03,
          8.86553320e+03, 4.33383057e+02, 8.81559204e+02, 9.25259705e+02,
          1.33664392e+03, 3.30231812e+02, 8.07672974e+02, 1.94085107e+03,
          6.85091650e+03, 3.45644043e+03, 4.52883984e+03, 4.45613916e+03,
          8.02736963e+03, 2.91797778e+03, 4.82842285e+03, 9.40240039e+03,
          8.16580225e+03, 9.61667871e+03, 2.29703882e+03, 1.47720911e+03,
          9.17395801e+03, 2.28598389e+03, 4.22310242e+02, 2.03133704e+03,
          4.67850000e+03, 1.62139795e+03, 3.79400146e+03, 1.37529521e+04,
          2.42480762e+04, 3.84316992e+03, 1.72595618e+03, 2.23056470e+03,
          3.59395264e+02, 3.24407715e+02, 2.70121167e+03, 7.65791943e+03,
          9.15474023e+03, 3.65497656e+03, 5.35160095e+02, 2.42871338e+03,
          5.81557324e+03, 4.67644531e+03, 9.96176953e+03, 1.24929951e+04,
          1.73751035e+04, 8.47264941e+03, 8.41548047e+03, 1.09224697e+04,
          2.24770664e+04, 1.49933081e+03, 1.51803711e+03, 6.27018311e+03 ]
      - [ 3.56751636e+03, 1.52589917e+03, 1.11317834e+03, 1.88909448e+03,
          6.40225586e+03, 1.33032495e+03, 1.46505542e+03, 2.18121704e+03,
          1.09278296e+03, 2.87502515e+03, 1.48095007e+03, 4.42130615e+03,
          4.09653076e+03, 1.68965063e+03, 3.91786816e+03, 2.96429907e+03,
          1.62689514e+03, 1.11813696e+03, 4.25538232e+03, 5.32673584e+02,
          6.51333740e+02, 1.73130386e+02, 3.93334747e+02, 6.22734985e+02,
          7.23645630e+02, 1.13666211e+03, 2.83261841e+03, 1.85286121e+03,
          1.83999084e+03, 2.65332581e+02, 4.25935852e+02, 3.92690918e+02,
          6.76372363e+03, 1.17793066e+03, 1.15688269e+03, 1.10844800e+03,
          6.60000916e+02, 8.76462952e+02, 5.95678772e+02, 9.66264160e+02,
          6.68824951e+03, 1.06412900e+04, 5.70179736e+03, 1.22211914e+04,
          9.79157520e+03, 3.09823560e+03, 4.51083789e+03, 3.76828320e+03,
          4.20247852e+03, 3.43790723e+03, 8.68985859e+04, 3.88578076e+03,
          4.22207812e+03, 3.13226166e+02, 5.85659546e+02, 1.43980945e+03,
          4.16330176e+03, 5.90765967e+03, 5.15572148e+04, 3.75740869e+03,
          5.51905908e+03, 1.50870386e+03, 1.60193896e+03, 9.66154358e+02 ]
      - [ 1.29713953e+03, 7.37610901e+02, 5.75482910e+02, 9.45692139e+02,
          1.50878247e+03, 1.39301575e+03, 4.22625781e+03, 3.35964575e+03,
          1.48189087e+03, 2.85498840e+02, 5.50346642e+01, 3.46526398e+02,
          2.58733917e+02, 3.70869080e+02, 1.60730505e+03, 3.65832764e+02,
          9.63434631e+02, 8.75217590e+02, 1.33951453e+03, 1.26663623e+03,
          1.89261108e+03, 2.75549316e+03, 1.88936853e+03, 2.14043848e+03,
          1.78673206e+03, 2.28984912e+03, 5.88477588e+03, 2.60916870e+03,
          5.20910303e+03, 1.87613623e+03, 7.75873047e+02, 6.29489075e+02,
          6.79859717e+03, 4.71704297e+03, 4.22907471e+03, 2.83925659e+03,
          2.76074170e+03, 3.16694531e+03, 2.16509692e+03, 3.93974902e+03,
          6.86516357e+03, 1.72050269e+03, 1.82611987e+03, 1.98065723e+03,
          3.14143188e+03, 2.16679028e+03, 2.40662476e+03, 3.50952100e+03,
          8.00705029e+03, 3.03121313e+03, 1.71084314e+03, 1.95627026e+03,
          2.68986206e+03, 1.71490894e+03, 3.47457031e+03, 8.24618457e+03,
          8.53862207e+03, 3.93252417e+03, 3.84689624e+03, 5.51779590e+03,
          6.89376758e+03, 3.73338599e+03, 3.32277734e+03, 6.61747998e+03 ]
      - [ 1.45849289e+02, 1.09314499e+02, 1.61340389e+01, 3.27081871e+01,
          5.38113861e+01, 1.75141888e+01, 2.85464115e+01, 1.02333450e+01,
          3.11622753e+01, 4.38326149e+01, 4.12048912e+01, 1.17109711e+02,
          3.27486230e+03, 4.00929535e+02, 8.86611023e+01, 7.65238953e+01,
          2.65613770e+02, 4.01344391e+02, 2.52807632e+02, 3.38935364e+02,
          3.91189514e+02, 2.68631325e+01, 8.08657227e+01, 4.73177795e+01,
          1.23089920e+02, 8.00819321e+01, 5.68912392e+01, 1.31997253e+02,
          2.58959259e+02, 1.01422340e+02, 2.25814972e+02, 1.00464203e+02,
          2.42371460e+03, 3.12441479e+03, 1.92611841e+03, 5.47566553e+03,
          3.75166577e+03, 5.18831445e+03, 2.86019360e+03, 1.29625793e+03,
          2.88266943e+03, 3.41811133e+03, 3.55368872e+03, 2.84770874e+03,
          5.44742578e+03, 2.83821045e+03, 3.44745532e+03, 4.49659668e+03,
          3.93142725e+03, 8.09733337e+02, 2.05307953e+02, 3.41274017e+02,
          7.71086975e+02, 7.59333435e+02, 7.97112427e+02, 2.48199292e+03,
          3.94519751e+03, 8.41278442e+02, 8.00281494e+02, 2.68488794e+03,
          3.29709546e+03, 5.66070129e+02, 7.52610291e+02, 2.90630298e+03 ]
      - [ 6.53657764e+03, 6.54395703e+03, 6.46002588e+03, 1.61335645e+03,
          1.75772876e+03, 4.50978210e+02, 2.79238708e+02, 9.76254456e+02,
          1.70021228e+03, 4.66843555e+03, 6.45188721e+03, 8.85963965e+03,
          8.96062012e+03, 2.05160132e+03, 7.23707031e+02, 7.77053589e+02,
          1.33150122e+03, 1.15737341e+03, 2.62916162e+03, 3.28649121e+03,
          4.03003760e+03, 1.39707654e+03, 9.10048584e+02, 9.97657898e+02,
          2.69520068e+03, 2.23920850e+03, 2.18456982e+03, 3.51020190e+03,
          5.05555420e+03, 7.01180908e+02, 2.95178436e+02, 7.02415833e+02,
          1.80149980e+04, 1.09972754e+03, 6.82563782e+02, 1.60708911e+03,
          1.79997180e+03, 5.47137512e+02, 9.33557922e+02, 1.14963440e+03,
          2.27454688e+03, 1.50912512e+03, 2.33145337e+03, 1.61888262e+04,
          2.47620859e+04, 6.85887158e+03, 9.17597266e+03, 9.60629492e+03,
          6.73587031e+04, 6.23270654e+03, 5.50677588e+03, 2.04730938e+04,
          3.78779023e+04, 4.17987109e+03, 3.68856738e+03, 4.48785107e+03,
          5.02016260e+03, 3.51998682e+03, 5.15992480e+03, 2.46229004e+04,
          3.38705703e+04, 5.52573340e+03, 1.27411465e+04, 2.46789141e+04 ]
      - [ 1.10170082e+02, 5.63607788e+01, 8.39203796e+01, 3.57524300e+01,
          3.70553818e+01, 2.42700386e+01, 2.47301159e+01, 6.32455540e+00,
          1.07803619e+02, 1.30350052e+02, 5.29338074e+01, 5.61199072e+03,
          1.79009062e+04, 9.49526291e+01, 1.47681305e+02, 2.92070122e+01,
          8.95142975e+01, 4.24264050e+00, 1.28062477e+01, 1.29429901e+02,
          1.51010713e+04, 6.07237988e+03, 1.09629287e+04, 1.14479043e+04,
          9.45366699e+03, 5.68567920e+03, 8.01665710e+02, 1.45476624e+03,
          4.25351562e+02, 6.63487320e+01, 8.10018768e+01, 6.62159042e+01,
          6.64155420e+03, 2.88520410e+03, 1.56678418e+03, 1.96185828e+03,
          1.21672339e+03, 1.31343481e+03, 3.16600684e+03, 2.82081519e+03,
          7.47690381e+03, 1.37401719e+04, 1.03656641e+04, 1.02350996e+04,
          4.38865967e+03, 3.07566309e+03, 4.26799072e+03, 4.27369434e+03,
          9.29101953e+03, 5.53469189e+03, 6.25455469e+03, 1.52967275e+04,
          2.05364668e+04, 9.34375586e+03, 1.03195820e+04, 9.61345898e+03,
          1.10375381e+04, 6.62085156e+03, 5.92005566e+03, 9.92597656e+03,
          1.78155898e+04, 8.30622852e+03, 9.08793750e+03, 8.67469043e+03 ]
      - [ 1.43128345e+03, 2.12749039e+02, 1.50586731e+02, 1.41719193e+02,
          2.25933914e+02, 6.49309006e+01, 3.69243698e+01, 3.01578491e+02,
          8.68866516e+02, 8.81755600e+01, 2.05878937e+02, 5.99448090e+01,
          1.96876190e+02, 1.56684723e+02, 3.10640808e+02, 1.12933215e+03,
          2.20320215e+03, 6.59590210e+02, 1.01914728e+03, 1.16929846e+03,
          9.46069458e+02, 6.13243652e+02, 8.73532043e+02, 1.49382300e+03,
          1.93335327e+03, 7.63045166e+02, 6.60697144e+02, 1.26498267e+03,
          1.60282080e+03, 3.35260498e+02, 4.56084991e+02, 2.34859375e+03,
          1.75974160e+04, 6.43289990e+03, 1.93853470e+02, 6.32455540e+00,
          1.74762866e+03, 2.33664761e+01, 9.00840454e+01, 5.47323608e+02,
          2.53327783e+03, 3.77798975e+03, 3.34255713e+03, 1.32873535e+03,
          2.94589575e+03, 4.59464307e+03, 3.08296069e+03, 3.10000684e+03,
          4.72436279e+03, 2.77275488e+03, 3.22550659e+03, 2.51183643e+03,
          3.83425244e+03, 2.85754932e+03, 4.54561816e+03, 5.20253662e+03,
          4.39260889e+03, 4.45307324e+03, 3.79289966e+03, 3.59360620e+03,
          7.29995801e+03, 7.73711572e+03, 6.57207178e+03, 4.65908545e+03 ]
      - [ 7.63771484e+02, 1.02962624e+02, 3.77359200e+01, 2.35634880e+01,
          3.97691382e+03, 3.09275977e+03, 1.53380017e+03, 3.25576401e+01,
          3.01744897e+03, 2.36097144e+03, 3.04702661e+03, 5.96193652e+03,
          9.08680664e+03, 3.03472070e+03, 4.88207617e+03, 2.57107544e+03,
          6.53981689e+02, 1.64746021e+03, 2.32450488e+03, 9.36566602e+03,
          5.48224512e+03, 6.79567871e+02, 1.67987259e+02, 1.12369934e+03,
          5.77425476e+02, 1.03924158e+03, 2.73657764e+03, 4.76109326e+03,
          4.18852686e+03, 9.97884644e+02, 4.85219635e+02, 9.15348389e+02,
          7.67316101e+02, 1.95596460e+03, 2.60570020e+03, 5.68032568e+03,
          3.63366919e+03, 2.14729736e+03, 4.61115662e+02, 2.72620752e+03,
          4.26472314e+03, 3.38795410e+03, 7.23462061e+03, 1.77214531e+04,
          1.73141309e+04, 3.65169604e+03, 1.75382544e+03, 6.08701477e+02,
          2.07913965e+03, 1.21710608e+03, 2.63862915e+03, 5.97924658e+03,
          7.92921240e+03, 2.09609595e+03, 2.01188208e+03, 1.37488843e+03,
          9.15909277e+03, 5.99231543e+03, 5.32566895e+03, 4.72044189e+03,
          3.42652075e+03, 1.85439001e+03, 2.72834619e+03, 4.38683203e+03 ]
      - [ 1.65309302e+03, 4.40945770e+02, 4.18903076e+02, 5.54160950e+02,
          2.72785596e+03, 1.07805107e+04, 3.81709058e+03, 6.14544336e+03,
          8.62133203e+03, 7.44707080e+03, 9.57186914e+03, 1.00707432e+04,
          1.03055596e+04, 1.18651794e+03, 1.82934485e+03, 4.53609833e+02,
          3.67451392e+03, 1.08319287e+03, 1.13150403e+03, 5.57643457e+03,
          6.40041406e+03, 2.14181226e+03, 2.57113159e+03, 3.04522974e+03,
          3.20851514e+03, 1.50818359e+03, 1.84567334e+03, 5.78029102e+03,
          9.97799414e+03, 1.45434106e+03, 2.13851294e+03, 2.68565259e+03,
          6.90798193e+03, 5.19643262e+03, 8.83993262e+03, 2.97967163e+03,
          4.49146582e+03, 3.22586304e+03, 4.21368066e+03, 7.84880420e+03,
          6.05314453e+03, 4.46040869e+03, 1.91431226e+03, 5.28131006e+03,
          8.87073633e+03, 3.44544507e+03, 4.37401807e+03, 6.28402002e+03,
          3.54633398e+03, 3.73161572e+03, 2.65143311e+03, 2.88667090e+03,
          5.33015918e+03, 3.20914282e+03, 4.05646558e+03, 6.25086523e+03,
          7.84466113e+03, 3.60010840e+03, 6.04128760e+03, 5.49422217e+03,
          9.20732227e+03, 5.32740332e+03, 2.94489502e+03, 2.08512207e+03 ]
      - [ 1.77383398e+03, 2.22388092e+02, 2.24102463e+02, 1.11224792e+02,
          2.74117065e+02, 0., 1.02956295e+01, 1.50332956e+01,
          2.71574860e+02, 3.62352661e+02, 6.89071106e+02, 9.17707703e+02,
          7.28574512e+03, 5.39840723e+03, 3.06679712e+03, 2.28385986e+03,
          1.10914746e+03, 7.34071045e+02, 5.15898438e+02, 4.73855164e+02,
          5.91454407e+02, 1.73838379e+02, 2.36355835e+02, 4.15531372e+02,
          7.12331726e+02, 7.13223633e+02, 1.26321057e+03, 3.75700757e+03,
          6.01887354e+03, 2.13582446e+03, 1.68435168e+03, 1.10795190e+03,
          1.39104028e+03, 1.66585815e+02, 6.59400787e+01, 3.16227770e+00,
          1.21059387e+02, 5.52267990e+01, 8.48645935e+01, 2.08502457e+02,
          1.90973718e+03, 2.03156470e+03, 4.06077686e+03, 1.81181445e+04,
          1.57341260e+04, 2.97238867e+03, 4.72466748e+03, 6.10867725e+03,
          3.29847070e+03, 4.14479443e+03, 4.36598828e+03, 7.01270020e+03,
          4.65571240e+03, 3.26019922e+03, 3.26403809e+03, 4.30649658e+03,
          5.19652832e+03, 6.75369043e+03, 5.57197021e+03, 7.59383545e+03,
          1.86668125e+04, 7.90869482e+03, 5.62904297e+03, 7.08416992e+03 ]
      - [ 1.63782092e+03, 6.46780167e+01, 0., 6.32455540e+00,
          4.05858498e+01, 0., 4.40147133e+01, 1.37452771e+03,
          2.09817407e+03, 2.96419434e+02, 2.50599251e+01, 4.19505997e+01,
          1.02725761e+02, 4.89328270e+01, 1.30825089e+02, 8.91136475e+02,
          7.97860779e+02, 7.43048248e+01, 3.84434204e+02, 9.17960352e+03,
          1.28861816e+04, 2.06352734e+03, 2.39321021e+03, 3.50757471e+03,
          5.98799414e+03, 7.22545654e+02, 6.19277039e+02, 1.00718281e+04,
          1.37380781e+04, 5.11014130e+02, 2.06052515e+03, 4.07127686e+02,
          4.02058179e+03, 2.45319824e+03, 3.74044019e+03, 3.47981763e+03,
          1.31620288e+03, 2.89366797e+03, 2.34239917e+03, 6.10829883e+03,
          5.02266455e+03, 2.87733765e+03, 1.06587915e+03, 5.38325146e+03,
          2.49267969e+03, 1.74478723e+03, 2.79607324e+03, 3.15648413e+03,
          1.37365713e+04, 3.12006079e+03, 2.77464600e+03, 1.05854688e+04,
          2.41863281e+04, 2.43995459e+03, 1.89288660e+03, 8.78942188e+03,
          1.03347168e+04, 4.06316211e+03, 3.98520190e+03, 1.26449316e+04,
          1.77043105e+04, 5.38966455e+03, 4.48599854e+03, 6.24664258e+03 ]
      - [ 1.53857513e+02, 2.27457306e+02, 1.69166473e+02, 1.04842908e+03,
          1.33355933e+03, 3.71062195e+02, 8.51717682e+01, 1.08710434e+02,
          1.03434479e+02, 1.48027710e+02, 1.73366821e+02, 3.99192596e+02,
          7.44524536e+02, 2.61901794e+02, 8.40249786e+01, 6.91606064e+01,
          3.75704254e+02, 2.47106735e+02, 1.15888196e+03, 1.40759307e+04,
          4.57301025e+03, 1.05469971e+03, 5.38329529e+02, 3.24293518e+02,
          6.16563904e+02, 5.35857910e+02, 8.67928711e+02, 5.13050977e+03,
          2.83925605e+04, 4.44650787e+02, 2.18643753e+02, 1.72571091e+02,
          1.60254565e+03, 6.72742310e+02, 7.61623108e+02, 1.29298303e+03,
          1.61670361e+03, 5.90561462e+02, 3.81351746e+02, 8.89200134e+02,
          1.17083545e+03, 1.76773523e+03, 1.45095471e+03, 2.24410718e+03,
          1.34502905e+03, 5.64064514e+02, 6.86465454e+02, 2.10756689e+03,
          7.73248352e+02, 1.06392188e+03, 1.67458093e+03, 3.70619062e+04,
          1.37165830e+04, 8.51351807e+02, 2.77791107e+02, 9.33612244e+02,
          7.21574524e+02, 2.75976959e+02, 1.73194604e+03, 1.16425459e+04,
          6.02577812e+04, 1.92063501e+03, 4.47559174e+02, 1.26025215e+02 ]
      - [ 1.82682541e+02, 2.33352783e+02, 1.02913864e+02, 3.65654449e+02,
          4.26642242e+02, 1.64871948e+02, 2.50770706e+02, 3.21430969e+02,
          5.07496948e+02, 4.10743896e+02, 3.22898193e+02, 3.15418274e+02,
          5.05960449e+02, 2.28921097e+02, 2.32376190e+02, 1.97934158e+02,
          8.16196838e+02, 2.52861984e+02, 3.31722443e+02, 1.62734436e+02,
          3.97403809e+02, 2.37393997e+02, 3.25906799e+02, 3.68829773e+02,
          9.53997070e+02, 1.34003015e+03, 5.48591492e+02, 8.70052002e+02,
          1.54469470e+03, 7.05625244e+02, 9.34412659e+02, 1.06992896e+03,
          3.02555322e+03, 5.68990295e+02, 4.92740662e+02, 6.83344177e+02,
          2.28874609e+03, 4.97772186e+02, 1.93964441e+03, 1.46629211e+03,
          2.23323682e+03, 4.00362183e+02, 4.61110962e+02, 4.61884552e+02,
          3.91370605e+03, 1.73891370e+03, 6.18728955e+03, 2.15946436e+03,
          2.00262610e+03, 9.25917114e+02, 6.58825195e+02, 1.20719958e+03,
          1.69383679e+03, 1.39621179e+03, 1.88334521e+03, 1.67204370e+03,
          2.64716211e+03, 1.85780469e+03, 1.58234412e+03, 1.25135046e+03,
          2.52414941e+03, 2.43041797e+03, 2.65186475e+03, 2.00351807e+03 ]
      - [ 4.53078766e+02, 9.02315979e+01, 1.06362305e+02, 1.63878098e+02,
          4.74350128e+02, 2.19953140e+02, 3.89722809e+02, 1.37605408e+02,
          3.25678680e+02, 1.59233200e+02, 3.73239716e+02, 2.70021759e+02,
          1.11270105e+03, 1.96278625e+02, 8.63162689e+01, 1.01849617e+02,
          6.13748108e+02, 5.56431458e+02, 1.13800623e+03, 3.65632031e+03,
          2.12978027e+03, 2.71335205e+02, 2.22712326e+02, 9.89441223e+01,
          1.72235657e+02, 1.74990906e+02, 4.60328339e+02, 1.10345898e+03,
          1.23691968e+03, 1.34332840e+02, 3.03147064e+02, 2.93438263e+02,
          3.87441309e+03, 2.82153687e+02, 2.26029617e+02, 1.68913788e+02,
          2.50580612e+02, 1.03527451e+02, 2.54374420e+02, 3.40415503e+03,
          7.55760352e+03, 5.60349548e+02, 3.89829712e+02, 2.87842072e+02,
          5.32373169e+02, 3.63981598e+02, 9.62548828e+02, 6.99621631e+03,
          1.74910559e+03, 1.43821082e+03, 2.99806787e+03, 8.75029004e+03,
          3.58912744e+03, 5.27937683e+02, 5.29801270e+02, 1.45392712e+03,
          2.20154712e+03, 8.64973145e+02, 1.25617969e+03, 2.52898169e+03,
          2.77230078e+03, 9.16379639e+02, 6.71559814e+02, 1.63700903e+03 ]
      - [ 2.25066626e+03, 4.74707336e+02, 3.13760083e+03, 3.36184521e+03,
          1.16668555e+03, 2.10917175e+02, 2.22970795e+02, 1.17601028e+02,
          2.54565277e+02, 4.52562866e+02, 2.01053711e+03, 1.83930798e+03,
          3.39732391e+02, 2.49065842e+02, 2.50451611e+03, 1.18268738e+03,
          2.21870532e+03, 4.19901025e+03, 5.95085986e+03, 2.20994067e+03,
          1.99137598e+03, 2.24014923e+02, 3.09014099e+02, 5.70368896e+02,
          1.18957751e+03, 3.13309668e+03, 6.83797900e+03, 2.87642407e+03,
          2.52629883e+03, 1.28429535e+02, 2.16194305e+02, 5.33307373e+02,
          3.68932446e+03, 1.56751855e+03, 1.81070959e+03, 7.71863037e+03,
          1.22116953e+04, 3.81414136e+03, 1.46900220e+03, 3.79597461e+03,
          6.91867725e+03, 4.97983643e+03, 2.59323364e+03, 4.85611426e+03,
          1.12453965e+04, 6.91932324e+03, 4.41391260e+03, 1.85953662e+03,
          1.66906934e+04, 2.86430820e+04, 3.30875122e+03, 9.17273010e+02,
          6.17667175e+02, 5.02212585e+02, 2.14317017e+03, 2.76116138e+03,
          1.44143057e+04, 1.59162246e+04, 2.49177612e+03, 1.34012048e+03,
          1.80868152e+03, 3.47613379e+03, 4.66599756e+03, 4.77525684e+03 ]
      - [ 4.80898315e+02, 2.72029400e+01, 8.94427204e+00, 2.00997505e+01,
          1.23986130e+02, 1.12473724e+02, 8.49002838e+01, 1.77419250e+02,
          2.97219391e+02, 1.59014709e+02, 5.87023735e+01, 7.02768478e+01,
          6.83988098e+02, 1.71832581e+03, 3.52829419e+03, 5.66512512e+02,
          4.19186646e+02, 1.97429398e+02, 1.58041229e+02, 1.68638763e+02,
          5.23095520e+02, 6.60475403e+02, 5.90252563e+02, 7.14232422e+02,
          5.88407410e+02, 2.46371841e+02, 2.98433777e+02, 4.35358429e+02,
          5.94307190e+02, 5.71323914e+02, 1.86650513e+03, 7.40803589e+02,
          2.26674585e+03, 2.28791992e+02, 1.70208237e+02, 1.22026596e+02,
          8.27433838e+02, 1.69306348e+04, 1.68231328e+04, 9.12461914e+02,
          3.00850000e+03, 2.83444244e+02, 2.60845276e+02, 7.87525879e+02,
          1.89357361e+03, 7.63191284e+02, 1.56660205e+03, 2.16410864e+03,
          1.32598267e+03, 3.34977356e+02, 3.62902679e+02, 4.87394012e+02,
          5.28836914e+03, 2.59433613e+04, 1.19923525e+04, 1.13328552e+03,
          1.09274231e+03, 8.16669189e+02, 4.91428650e+02, 7.78664185e+02,
          2.70210522e+03, 8.07127100e+03, 9.94324023e+03, 1.60198694e+03 ]
      - [ 1.98362305e+03, 9.17948486e+02, 6.49497986e+02, 3.95963623e+02,
          1.29812793e+03, 5.55821045e+02, 5.54546021e+02, 7.63685425e+02,
          6.96063965e+02, 2.96632660e+02, 2.59022827e+02, 2.07325363e+02,
          1.19539148e+03, 6.44460449e+02, 4.39922302e+02, 1.17406079e+03,
          5.06490869e+03, 3.43676929e+03, 1.25484814e+03, 6.06033691e+02,
          1.81835120e+03, 5.66983459e+02, 1.02196295e+03, 1.91097192e+03,
          1.19176086e+03, 7.87216248e+02, 1.18829468e+03, 8.17122498e+02,
          1.57575928e+03, 8.24202881e+02, 1.52402588e+03, 2.24161694e+03,
          2.71262793e+03, 2.72538281e+03, 3.74631567e+03, 6.18424072e+03,
          3.92101196e+03, 3.52552637e+03, 6.91825635e+03, 6.05767676e+03,
          2.03199463e+03, 5.51073547e+02, 1.18701636e+03, 6.01539490e+02,
          6.79216919e+02, 4.30468018e+02, 8.06304443e+02, 3.46118591e+02,
          9.01184277e+03, 3.03513159e+03, 3.96482666e+03, 5.48593457e+03,
          6.08046289e+03, 3.93786743e+03, 8.16331250e+03, 1.47293076e+04,
          1.22942891e+04, 5.03892676e+03, 3.52411890e+03, 6.13587158e+03,
          9.50464746e+03, 3.99437598e+03, 5.17925342e+03, 9.40432031e+03 ]
      - [ 2.01161560e+03, 8.99981461e+01, 9.85377502e+01, 5.92906952e+01,
          4.22629761e+02, 8.16937637e+01, 4.07354523e+02, 3.33546558e+03,
          6.63968750e+03, 8.06923462e+02, 4.22187073e+02, 3.75355469e+02,
          8.91229370e+02, 4.82427216e+02, 5.11074341e+02, 2.21776099e+03,
          4.34915088e+03, 4.59143750e+03, 1.87595093e+03, 2.71394238e+03,
          8.14299756e+03, 4.27985156e+03, 4.90445898e+03, 5.82191943e+03,
          3.66970435e+03, 3.01749176e+02, 1.00019257e+03, 1.68577539e+03,
          1.26987383e+04, 9.41656641e+03, 7.07388977e+02, 6.18547974e+02,
          1.52690039e+04, 2.86833081e+03, 3.75223608e+03, 5.84234082e+03,
          5.72656055e+03, 1.89585364e+03, 2.08391504e+03, 4.46550586e+03,
          1.30600312e+04, 6.20809619e+03, 2.60986694e+03, 5.63823682e+03,
          3.91319824e+03, 3.02420581e+03, 3.44010767e+03, 1.05050107e+04,
          2.77637363e+04, 1.17567559e+04, 5.72979150e+03, 8.23941992e+03,
          1.58256045e+04, 1.04495762e+04, 1.09437266e+04, 1.90823066e+04,
          1.73448262e+04, 4.64276807e+03, 2.97708496e+03, 5.01275000e+03,
          1.85714922e+04, 9.04685645e+03, 5.17476904e+03, 9.74264355e+03 ]
      - [ 1.58931958e+03, 3.23183014e+02, 3.17915916e+01, 0.,
          7.50553818e+01, 8.16819153e+01, 5.06663933e+01, 1.46072314e+03,
          2.36467285e+03, 5.17708984e+02, 6.46012268e+01, 8.30742874e+01,
          1.25486824e+02, 1.34467239e+01, 3.68691559e+02, 5.68634949e+02,
          2.23587866e+03, 2.48440369e+02, 3.16619034e+01, 1.38464707e+04,
          8.81955176e+03, 1.78757068e+03, 3.26725159e+02, 3.63877734e+03,
          5.56211670e+03, 2.59031952e+02, 5.83095121e+00, 1.10627764e+04,
          1.24869951e+04, 7.66266937e+01, 1.93092392e+02, 1.44908289e+03,
          2.91477148e+04, 3.84523926e+02, 8.86756714e+02, 1.88125940e+03,
          3.09934790e+03, 1.70462195e+03, 1.23498523e+03, 1.55022449e+03,
          6.13927393e+03, 1.96148584e+03, 3.36547363e+03, 1.12528945e+04,
          1.05026514e+04, 4.92635498e+03, 6.84719727e+03, 5.96756299e+03,
          5.88726211e+04, 1.48315234e+04, 1.47932773e+04, 1.91239316e+04,
          2.93159238e+04, 4.76480762e+03, 6.97908447e+03, 5.97640186e+03,
          1.16700791e+04, 7.84420850e+03, 5.13664062e+03, 2.20347148e+04,
          1.82838809e+04, 8.84872949e+03, 7.13581055e+03, 1.63256484e+04 ]
      - [ 0., 0., 0., 0., 0., 0., 2.82842684e+00, 1.03049408e+02,
          1.44647217e+02, 1.24994949e+02, 8.99472809e+01, 6.40666199e+01,
          4.97469287e+03, 2.30331879e+02, 3.39411240e+01, 0., 0., 0., 0.,
          1.08679431e+03, 2.97311719e+04, 1.24247400e+03, 2.96817841e+02,
          2.70500458e+02, 2.72513672e+02, 0., 0., 4.58869434e+03,
          2.19206172e+04, 0., 0., 0., 5.09791553e+03, 7.12075562e+02,
          2.90198883e+02, 3.37987976e+02, 8.55283875e+02, 2.45592773e+02,
          2.62841003e+02, 7.23048242e+03, 3.83943008e+04, 5.75649609e+03,
          1.12786145e+03, 3.95120605e+03, 3.82431519e+03, 9.88764709e+02,
          6.99127319e+02, 3.97641968e+03, 8.15752686e+03, 4.00960107e+03,
          7.92005908e+03, 9.82737793e+03, 1.70898105e+04, 1.24845918e+04,
          1.83530391e+04, 5.71376367e+04, 2.90095312e+04, 1.07053330e+04,
          7.74963330e+03, 7.45411182e+03, 1.41978457e+04, 6.84286865e+03,
          7.04410645e+03, 9.16376367e+03 ]
      - [ 1.23299158e+03, 5.76753235e+02, 7.79047546e+02, 5.55501807e+03,
          6.15436572e+03, 3.17370508e+03, 2.00200159e+03, 1.09216748e+03,
          1.52636731e+03, 9.05828003e+02, 3.00423523e+02, 2.47835663e+02,
          4.47432556e+02, 5.76224304e+02, 2.96575439e+02, 3.41592590e+02,
          8.29839844e+02, 0., 5.74490242e+01, 5.34578809e+03,
          1.38944463e+04, 3.58100098e+03, 5.01101562e+03, 7.34774219e+03,
          1.22177490e+04, 5.40072363e+03, 7.56775146e+03, 2.55949648e+04,
          1.15788467e+04, 5.30770996e+02, 3.36902649e+02, 6.30594971e+02,
          3.28807690e+03, 6.96419861e+02, 5.24705750e+02, 6.88399231e+02,
          3.75882324e+02, 4.59161621e+02, 2.89712616e+02, 7.86018127e+02,
          4.50670068e+03, 3.37841479e+03, 4.73289697e+03, 5.27198926e+03,
          5.48387549e+03, 5.29510547e+03, 4.20023877e+03, 2.40616650e+03,
          1.40820547e+04, 8.78144922e+03, 8.68243555e+03, 6.47731152e+03,
          7.14404004e+03, 4.92434180e+03, 4.46788818e+03, 1.75846816e+04,
          1.64617695e+04, 7.35588428e+03, 5.13136816e+03, 1.03189248e+04,
          5.70660107e+03, 4.20233301e+03, 9.26209961e+03, 4.42156592e+03 ]
      - [ 8.38844604e+02, 6.96682678e+02, 3.46439697e+02, 1.02681648e+02,
          2.06973648e+02, 2.64201450e+01, 6.22067871e+01, 3.72376518e+01,
          1.79907639e+02, 1.58141144e+02, 1.71537445e+02, 2.75987762e+02,
          3.23387665e+02, 3.79276672e+02, 4.52209045e+02, 3.66159271e+02,
          8.29510559e+02, 9.09331360e+02, 6.73148682e+02, 7.57176697e+02,
          1.17078223e+03, 5.37086548e+02, 5.75154053e+02, 3.35995026e+02,
          4.95730286e+02, 6.68753601e+02, 7.16054749e+02, 1.14425867e+03,
          1.43291187e+03, 7.33941833e+02, 1.01748413e+03, 6.20226868e+02,
          2.61932520e+03, 1.46800854e+03, 5.59108521e+02, 4.26512390e+02,
          6.64430420e+02, 1.85558044e+02, 1.33941882e+03, 1.57585291e+03,
          4.32098193e+03, 1.45988135e+03, 1.72678137e+03, 1.26287744e+03,
          1.30049219e+03, 1.77925891e+03, 8.05436523e+02, 3.25369043e+03,
          3.06213789e+04, 2.83976904e+03, 2.02106970e+03, 1.79033362e+03,
          2.20752271e+03, 1.86641223e+03, 2.17540918e+03, 1.25640879e+04,
          2.11510762e+04, 2.48559790e+03, 2.77221606e+03, 5.55586328e+03,
          3.15862671e+03, 3.59830029e+03, 3.79769141e+03, 3.85340186e+03 ]
      - [ 5.34730408e+02, 1.00671967e+03, 2.10798218e+03, 1.04161609e+03,
          1.41011938e+03, 7.42166672e+01, 4.00175056e+01, 1.81152283e+02,
          1.10888965e+03, 1.41699329e+03, 3.99746484e+03, 2.98039062e+03,
          1.60785083e+03, 4.97575150e+01, 9.84141998e+01, 1.17154991e+02,
          3.74492383e+03, 1.17133154e+04, 1.12048857e+04, 1.84240601e+03,
          2.01106360e+03, 4.32005890e+02, 2.98725433e+02, 1.92639648e+02,
          2.52019849e+03, 2.09462622e+03, 2.82382690e+03, 9.79022400e+02,
          2.64898657e+03, 3.37512909e+02, 2.63603760e+02, 3.50492096e+02,
          9.01853027e+03, 8.23527734e+03, 1.12166724e+03, 4.91261536e+02,
          7.40405579e+02, 3.15100708e+02, 2.28241040e+03, 2.99835425e+03,
          6.34182227e+03, 3.67222998e+03, 1.43010913e+03, 5.39849487e+02,
          8.99619629e+02, 1.62380688e+03, 3.98400830e+03, 4.53843018e+03,
          5.69417041e+03, 2.82652715e+04, 4.41156885e+03, 1.03710327e+03,
          1.35755457e+03, 4.96660797e+02, 7.35809753e+02, 7.53999146e+02,
          5.82345703e+03, 2.84763770e+04, 4.53892188e+03, 1.95426282e+03,
          1.80314880e+03, 7.18278564e+02, 9.98788391e+02, 1.54814038e+03 ]
      - [ 6.44508728e+02, 1.51144699e+02, 3.17450142e+01, 4.47198364e+02,
          1.53793936e+04, 2.28833105e+03, 7.76155212e+02, 1.12019394e+02,
          6.97832153e+02, 5.17706177e+02, 5.38491943e+02, 4.37919006e+02,
          1.06149438e+03, 3.35987366e+02, 2.73316284e+02, 2.72277618e+02,
          5.22957336e+02, 2.53757278e+02, 5.13355591e+02, 4.33726715e+02,
          1.59881226e+03, 1.53065247e+03, 1.58830286e+03, 1.04476672e+03,
          1.80938782e+03, 1.23587512e+03, 1.66567883e+03, 3.14269946e+03,
          1.73175254e+04, 1.16964307e+03, 8.02031311e+02, 4.82740112e+02,
          2.31805737e+03, 1.04610278e+03, 8.28789429e+02, 7.08103821e+02,
          3.14570630e+03, 2.55743359e+03, 2.49360034e+03, 1.04912817e+03,
          2.41596460e+03, 1.80229834e+03, 9.57215942e+02, 9.89161072e+02,
          1.01480487e+03, 1.05437610e+03, 1.38024927e+03, 1.63632581e+03,
          1.32232402e+04, 5.57215918e+03, 5.51613770e+03, 9.27077539e+03,
          1.64861699e+04, 5.17774268e+03, 6.11787988e+03, 6.16621973e+03,
          8.69465820e+03, 5.29775537e+03, 4.99234961e+03, 3.43806104e+03,
          1.40087021e+04, 9.52481445e+03, 8.27756934e+03, 1.04165049e+04 ]
      - [ 1.05680733e+02, 3.99121094e+01, 1.74928551e+01, 1.77330437e+01,
          24., 0., 4.24264050e+00, 1.45858517e+01, 3.99999962e+01,
          2.29969444e+01, 7.06581421e+01, 7.43848877e+01, 6.75825256e+02,
          4.82546204e+02, 6.57145813e+02, 2.54434067e+02, 8.68317749e+02,
          2.28883408e+02, 8.88428268e+01, 1.44407578e+02, 4.49677246e+02,
          1.20783440e+02, 2.80166870e+02, 1.19040955e+03, 2.03493567e+03,
          2.09786194e+02, 9.66252747e+01, 1.57322830e+02, 1.61684143e+02,
          4.10362587e+01, 4.86609459e+01, 3.51344299e+02, 3.91274341e+03,
          3.02882495e+03, 3.22452832e+03, 3.20298340e+03, 6.99274023e+03,
          4.35025928e+03, 3.27019995e+03, 4.68501416e+03, 7.92285278e+02,
          3.00710663e+02, 1.45134048e+02, 5.96936218e+02, 6.81717834e+02,
          1.55714294e+02, 1.58984970e+02, 3.12080176e+03, 3.79688037e+03,
          1.00632117e+03, 2.71083374e+02, 1.50871414e+02, 5.71109802e+02,
          2.98109650e+02, 6.30263794e+02, 1.28235095e+03, 3.20993896e+03,
          5.25947266e+03, 5.40515723e+03, 7.41336816e+03, 4.85793262e+03,
          3.89697070e+03, 5.03686475e+03, 3.55875757e+03 ]
      - [ 3.72451416e+02, 1.78885441e+01, 0., 0., 1.59999990e+01,
          5.83095121e+00, 2.69099216e+01, 1.66534409e+02, 7.57743408e+02,
          9.94898193e+02, 4.01188232e+02, 1.42063934e+02, 2.77031616e+02,
          1.75767044e+02, 7.10334534e+02, 1.01439661e+03, 2.59315582e+02,
          3.43253662e+02, 1.70292465e+02, 2.29074768e+02, 1.92702286e+02,
          3.40831833e+01, 1.30528992e+02, 2.15706039e+02, 1.41941089e+03,
          1.32218921e+03, 1.33986211e+04, 1.06781172e+04, 3.42808960e+03,
          8.93559448e+02, 1.55626270e+03, 3.68199677e+02, 8.10651184e+02,
          8.04997787e+01, 7.54352341e+01, 4.22991562e+01, 4.80172058e+02,
          8.41063049e+02, 1.08418857e+04, 8.00897070e+03, 2.38924536e+03,
          1.15649170e+02, 3.92298355e+01, 5.28256416e+01, 2.08677322e+02,
          2.55001755e+02, 2.10350391e+03, 1.54760803e+03, 8.09562866e+02,
          4.77761017e+02, 3.57747009e+02, 3.38935547e+02, 5.10308411e+02,
          3.42466705e+02, 3.50164917e+03, 2.49346069e+03, 4.64891113e+03,
          1.27231201e+04, 5.67341016e+04, 7.42170898e+03, 4.04625708e+03,
          2.02235181e+03, 3.61424634e+03, 1.49059680e+03 ]
      - [ 9.21136475e+02, 1.26859717e+03, 1.10496106e+03, 4.13945251e+02,
          6.30498169e+02, 2.51973511e+02, 6.67610046e+02, 8.30842163e+02,
          1.56196021e+03, 7.09036865e+02, 1.45289215e+02, 1.39283867e+01,
          3.04246185e+02, 7.94543152e+01, 1.35817261e+02, 6.07939819e+02,
          1.65923792e+03, 9.93334900e+02, 8.97189392e+02, 4.35797656e+03,
          1.91941113e+04, 2.19811328e+03, 7.98194702e+02, 1.04649072e+03,
          1.23820837e+03, 6.49530396e+02, 1.04077881e+03, 2.49966870e+03,
          1.22283545e+04, 4.89443665e+02, 8.67484497e+02, 1.08902722e+03,
          5.54054150e+03, 2.47196924e+03, 3.18541650e+03, 4.66387109e+03,
          5.61257129e+03, 9.52984863e+02, 1.17909351e+03, 2.96804468e+03,
          6.25363965e+03, 6.72568848e+02, 4.76371338e+02, 4.21930176e+02,
          6.74331848e+02, 6.20314453e+02, 1.35434851e+03, 2.84605811e+03,
          3.59221509e+03, 1.57874243e+03, 1.87865430e+03, 1.19084199e+04,
          4.30438164e+04, 4.87927637e+03, 3.08827417e+03, 2.82951074e+03,
          4.66090479e+03, 1.54882458e+03, 1.92506665e+03, 4.91918311e+03,
          4.62672383e+04, 2.43105005e+03, 2.18743921e+03, 2.13186572e+03 ]
      - [ 8.50608789e+03, 2.97524756e+03, 3.97964050e+02, 3.64863434e+02,
          9.61659973e+02, 1.49217865e+02, 6.32178650e+02, 9.83950195e+03,
          9.01255176e+03, 1.63250537e+03, 1.22578748e+03, 2.77985718e+03,
          2.23590894e+03, 1.21747363e+03, 2.27656104e+03, 9.13139160e+03,
          5.41769836e+02, 3.48352875e+02, 7.19416809e+02, 3.98381299e+03,
          2.21884707e+04, 4.73881982e+03, 1.89498499e+03, 2.99705078e+02,
          2.25119971e+03, 7.43591943e+03, 8.26715039e+03, 1.12500059e+04,
          6.94338770e+03, 9.58788208e+02, 3.37245422e+02, 4.25511108e+02,
          1.29070264e+04, 9.60664844e+03, 6.32694531e+03, 4.14421387e+03,
          7.34340186e+03, 4.61019336e+03, 1.57039453e+04, 1.30540547e+04,
          1.48210869e+04, 1.30593340e+04, 8.02402344e+03, 3.82556445e+03,
          1.34130732e+04, 9.13030762e+03, 1.87230332e+04, 7.48654199e+03,
          7.78391309e+03, 7.74560791e+03, 5.87453467e+03, 2.56289883e+04,
          3.65959414e+04, 5.53308008e+03, 4.27400195e+03, 1.16478818e+04,
          8.55893359e+03, 5.16038721e+03, 6.75835791e+03, 2.40112031e+04,
          2.23130352e+04, 9.63770215e+03, 6.56985449e+03, 5.88632422e+03 ]
      - [ 3.25265063e+03, 3.99365796e+03, 2.13835312e+04, 1.95358752e+03,
          3.06651978e+03, 1.50000208e+03, 1.29018494e+03, 1.33718860e+03,
          3.76085547e+03, 1.27638330e+03, 1.18215840e+04, 5.81450586e+03,
          3.78978101e+03, 3.75877197e+02, 4.05580475e+02, 1.26937695e+03,
          5.74780701e+02, 1.93844620e+02, 9.50558301e+03, 4.00628510e+02,
          2.56067383e+03, 1.26701843e+02, 2.71183136e+02, 3.46042938e+02,
          8.81022949e+02, 1.30694189e+03, 9.45274023e+03, 3.02050439e+03,
          2.39064844e+03, 5.61008911e+02, 4.49409546e+02, 9.18738708e+01,
          3.91106909e+03, 3.91910736e+02, 3.04597969e+04, 3.35338574e+03,
          2.46264954e+02, 1.84560242e+02, 5.60183678e+01, 8.93006744e+01,
          3.07400244e+03, 1.29925635e+03, 2.88092520e+04, 7.78825586e+03,
          1.82029944e+03, 1.47761597e+02, 4.48123779e+01, 1.21983513e+02,
          1.27692786e+03, 8.72334045e+02, 7.60983093e+02, 8.84146423e+02,
          1.04922876e+03, 8.86327637e+02, 1.24995801e+03, 1.18839075e+03,
          1.92956555e+03, 2.43870654e+03, 3.26436328e+03, 3.06551978e+03,
          2.45832129e+03, 1.42591467e+03, 1.17487952e+03, 6.65722839e+02 ]
      - [ 6.57933496e+03, 2.20112720e+03, 2.83563794e+03, 8.44336304e+02,
          9.26982483e+02, 9.78745483e+02, 5.76951538e+02, 7.50187622e+02,
          2.56565576e+03, 3.19406543e+03, 3.32259375e+03, 3.05823071e+03,
          6.16523779e+03, 2.81672290e+03, 2.44081787e+03, 2.91656641e+03,
          2.87734326e+03, 2.36984619e+03, 1.60384009e+03, 1.07026025e+03,
          2.19942041e+03, 2.49327637e+03, 1.93892627e+03, 4.69086035e+03,
          4.98116162e+03, 2.07859839e+03, 3.10920190e+03, 2.26986279e+03,
          4.82885400e+03, 3.90211987e+03, 3.33390674e+03, 3.89164233e+03,
          2.22387720e+03, 2.95040558e+02, 3.28051575e+02, 4.49558792e+01,
          2.38425003e+02, 1.20830460e+01, 2.76431789e+01, 6.08220825e+02,
          2.92371729e+03, 2.04008118e+03, 5.85311328e+03, 3.31749336e+04,
          9.75680566e+03, 6.14278320e+03, 4.60741113e+03, 2.62932446e+03,
          7.81431348e+03, 3.77738843e+03, 4.93047949e+03, 1.51989932e+04,
          9.75917871e+03, 5.35337988e+03, 4.64211328e+03, 4.23866162e+03,
          8.52966016e+03, 4.35800049e+03, 3.63314087e+03, 2.59308521e+03,
          4.07270557e+03, 2.43405273e+03, 4.76834033e+03, 1.14144014e+04 ]
      - [ 1.07344528e+02, 4.95979767e+01, 5.24101196e+02, 1.58501929e+03,
          1.26994111e+04, 4.31232910e+03, 9.03086914e+02, 6.77693665e+02,
          5.55310791e+02, 3.26713074e+02, 5.49482300e+02, 2.68989844e+03,
          4.75912549e+03, 4.36148346e+02, 1.19893219e+02, 4.61739044e+01,
          2.44866968e+03, 1.13479468e+03, 1.53801355e+03, 9.84677063e+02,
          3.02705640e+03, 8.25679321e+02, 9.35864380e+02, 7.51000122e+02,
          5.63148743e+02, 3.27498853e+03, 6.43414990e+03, 7.22869043e+03,
          1.90489492e+04, 1.36030896e+03, 9.09482239e+02, 1.33373022e+03,
          4.16422461e+03, 1.85293787e+03, 2.17680981e+03, 3.18879297e+03,
          3.28718848e+03, 2.52494092e+03, 1.46576331e+03, 4.09240918e+03,
          4.44314990e+03, 1.10011133e+03, 1.75732043e+03, 4.60304004e+03,
          1.87424243e+03, 2.02479626e+03, 1.72479517e+03, 4.58030713e+03,
          8.27088477e+03, 7.61706299e+03, 6.14406689e+03, 1.03683916e+04,
          1.48519268e+04, 4.06972339e+03, 4.28413379e+03, 7.86222070e+03,
          1.12716533e+04, 9.13776270e+03, 9.25329590e+03, 9.25896973e+03,
          2.90148770e+04, 1.36500605e+04, 9.54887012e+03, 1.09963271e+04 ]
      - [ 2.56041455e+03, 1.90082947e+02, 5.39814110e+01, 7.50806808e+01,
          6.23757507e+02, 3.31134247e+02, 7.32491272e+02, 1.20972205e+03,
          3.44182837e+03, 2.69937164e+02, 1.68006866e+02, 1.23327843e+02,
          8.61970062e+01, 6.57913666e+01, 2.10219498e+02, 9.63630859e+02,
          4.31757599e+02, 1.91309967e+02, 5.78995247e+01, 9.04126663e+01,
          2.35896835e+02, 1.78059189e+02, 6.31545898e+02, 1.84186951e+03,
          2.80431226e+03, 8.12525330e+02, 5.41446655e+02, 1.12405994e+03,
          1.89469470e+03, 2.76405396e+02, 2.23908249e+02, 2.41241394e+02,
          6.68904443e+03, 5.82484326e+03, 6.10867969e+03, 6.81087939e+03,
          9.06259277e+03, 4.53613135e+03, 4.66343506e+03, 6.72771729e+03,
          7.26410986e+03, 3.70560840e+03, 2.64730835e+03, 1.29772876e+03,
          2.37460327e+03, 2.07375513e+03, 5.04523096e+03, 6.75186523e+03,
          1.28890439e+04, 2.56452734e+03, 7.77929626e+02, 5.86519409e+02,
          1.56148157e+03, 7.63609497e+02, 1.61681592e+03, 7.37860156e+03,
          8.00325879e+03, 2.48520703e+03, 2.87853784e+03, 9.38526562e+03,
          8.34658008e+03, 5.44485303e+03, 1.75281543e+03, 7.61934717e+03 ]
      - [ 5.75609970e+01, 2.84893589e+01, 4.41505547e+01, 1.42562958e+02,
          3.48052582e+02, 1.14654648e+02, 1.83847752e+01, 3.69341357e+03,
          1.86353882e+03, 4.05537500e+03, 2.13617139e+03, 1.81873574e+04,
          1.82828203e+04, 1.34164085e+01, 0., 3.16227770e+00,
          2.65457825e+02, 1.87190094e+02, 1.55429184e+02, 2.48102612e+03,
          3.72034375e+03, 4.55109253e+02, 4.40082916e+02, 9.73971863e+02,
          2.57706665e+03, 8.88205811e+02, 4.86849823e+02, 2.09060303e+03,
          9.43990820e+03, 2.27618805e+02, 2.08683578e+02, 8.57336426e+01,
          1.39440391e+04, 5.96642517e+02, 5.47039062e+02, 8.29046509e+02,
          1.73188306e+03, 1.10987988e+03, 9.18371643e+02, 6.44807080e+03,
          1.05417646e+04, 9.05361816e+03, 3.64687549e+03, 1.40925781e+04,
          2.54514082e+04, 1.47212402e+04, 1.11287959e+04, 1.36686230e+04,
          1.04535840e+04, 5.75574707e+03, 2.80105493e+03, 7.39012305e+03,
          7.96598535e+03, 3.15069458e+03, 4.47933984e+03, 4.54544434e+03,
          5.81249316e+03, 3.81297876e+03, 4.52393506e+03, 8.32389453e+03,
          3.09329727e+04, 8.13458789e+03, 4.15750293e+03, 7.26751611e+03 ]
      - [ 8.77301453e+02, 1.15689514e+03, 1.54091724e+03, 5.33666534e+01,
          7.84338257e+02, 9.04263611e+02, 3.62941772e+02, 6.13964005e+01,
          6.12108948e+02, 5.54697510e+02, 6.27173218e+02, 1.35834912e+04,
          1.12538721e+04, 4.63906152e+03, 3.44475293e+03, 1.61057654e+03,
          4.89783936e+03, 4.91914990e+03, 1.03585205e+04, 1.43420010e+04,
          2.90369580e+03, 6.85663086e+02, 9.83367004e+02, 2.25401611e+03,
          1.48255579e+03, 5.43354309e+02, 3.49242725e+03, 1.95477109e+04,
          1.02665293e+04, 3.97878345e+03, 1.98258643e+03, 1.77963318e+03,
          6.60023340e+03, 2.77936938e+03, 3.78443457e+03, 9.37561914e+03,
          3.17526147e+03, 1.02120758e+03, 1.19332397e+03, 6.49416211e+03,
          2.41165254e+04, 6.55341162e+03, 7.68511377e+03, 1.61909277e+04,
          1.40333594e+04, 7.90076611e+03, 5.41118604e+03, 8.51478418e+03,
          3.58165259e+03, 1.16526973e+04, 2.36042168e+04, 1.44252861e+04,
          1.59750977e+03, 2.22483496e+03, 1.10679858e+03, 1.20934443e+04,
          1.76387520e+04, 6.08008594e+03, 2.75953066e+04, 3.03458633e+04,
          1.85155234e+04, 3.01909521e+03, 1.89320862e+03, 6.28074609e+03 ]
      - [ 1.26499573e+02, 1.82045502e+02, 1.44244492e+02, 1.93253143e+02,
          2.07517288e+02, 6.00192337e+01, 2.12915287e+01, 7.55921783e+01,
          1.25135391e+02, 1.48622070e+02, 1.03450897e+02, 4.67540918e+03,
          2.15881074e+04, 2.92456543e+02, 8.61943741e+01, 7.89157410e+01,
          3.61874365e+03, 1.35287671e+03, 2.69980908e+03, 1.44614727e+04,
          1.16431045e+04, 2.01532471e+03, 1.15840515e+03, 2.46838770e+03,
          2.60451538e+03, 1.46686340e+03, 1.58763696e+03, 8.02675488e+03,
          8.56254688e+03, 1.40755737e+03, 1.61951514e+03, 4.07011816e+03,
          4.93415131e+02, 3.70984344e+02, 5.86346436e+02, 2.82401947e+02,
          7.94843689e+02, 1.23576340e+02, 4.33561249e+02, 1.14009644e+03,
          3.38954736e+03, 5.52806091e+02, 5.23847168e+02, 1.34271982e+04,
          4.07259375e+04, 9.25458313e+02, 3.01164490e+02, 2.29085297e+02,
          5.44764062e+03, 2.89079980e+03, 6.59885986e+03, 2.84272148e+04,
          1.67479043e+04, 3.60533398e+03, 3.51498853e+03, 4.81331445e+03,
          5.77581152e+03, 6.98697900e+03, 3.54851514e+03, 1.36050205e+04,
          1.63308975e+04, 2.14797925e+03, 5.44334277e+03, 4.66559570e+03 ]
      - [ 6.65086426e+03, 6.65464050e+02, 4.14295563e+02, 8.98142319e+01,
          5.43837891e+02, 2.54492020e+02, 8.85932495e+02, 1.91777820e+03,
          1.79178247e+03, 1.41164832e+03, 1.07584949e+03, 6.13819214e+02,
          2.07726636e+03, 7.79825073e+02, 8.16856628e+02, 4.15353564e+03,
          4.03022607e+03, 1.48772205e+03, 2.37317456e+03, 3.16124634e+03,
          1.93469688e+04, 3.30350317e+03, 2.06114624e+03, 9.03514893e+02,
          2.22046167e+03, 8.82201660e+02, 5.65919434e+02, 2.37037402e+03,
          5.06610107e+03, 4.79748383e+02, 1.25516345e+03, 3.45413574e+03,
          1.95418970e+03, 3.08663300e+02, 3.69075104e+02, 6.94625610e+02,
          1.94524280e+03, 1.60329236e+03, 1.28142725e+03, 5.48611621e+03,
          8.15776367e+03, 1.60780664e+03, 7.68027893e+02, 9.33830261e+02,
          3.94217627e+03, 2.27763794e+03, 1.21745557e+03, 7.82928650e+02,
          1.48643567e+03, 2.08846265e+03, 4.78770801e+03, 1.19791816e+04,
          3.55434609e+04, 1.34308828e+04, 3.80745557e+03, 5.08848828e+03,
          8.05173389e+03, 3.15629712e+03, 3.02009131e+03, 6.66950732e+03,
          1.26904297e+04, 4.11534668e+03, 2.86983667e+03, 1.22420667e+03 ]
      - [ 0., 0., 0., 0., 3.19999981e+01, 1.88943405e+01, 1.08452927e+02,
          9.94531631e+01, 9.88068848e+02, 1.93027573e+01, 0., 0., 0., 0.,
          0., 0., 3.16227770e+00, 1.13137074e+01, 1.78885441e+01,
          1.58113880e+01, 4.19506836e+02, 2.06189758e+02, 8.03833069e+02,
          3.38141754e+02, 4.75395599e+02, 3.97902336e+01, 0.,
          3.16227770e+00, 5.16227770e+00, 0., 5.65685368e+00,
          3.16227770e+00, 2.38442676e+03, 1.17672371e+02, 1.16832380e+01,
          5.09901905e+00, 9.61644211e+01, 8.93771057e+01, 3.47353333e+02,
          4.01468475e+02, 7.70390198e+02, 1.34164085e+01, 0., 0., 0., 0.,
          0., 3.06092499e+02, 6.17455750e+02, 9.63457336e+02,
          4.20712860e+02, 3.83378937e+02, 1.43351782e+03, 6.46754272e+02,
          8.50540710e+02, 6.68420181e+01, 3.02101166e+02, 1.31869125e+01,
          0., 5.09901905e+00, 1.43245544e+01, 0., 2.16721935e+01,
          2.16569195e+01 ]
      - [ 1.95130481e+03, 1.18874036e+03, 2.34059961e+03, 5.94474170e+03,
          4.69551172e+03, 8.67047852e+02, 1.21165320e+03, 2.37844092e+03,
          1.88349707e+03, 6.92024170e+02, 7.55163208e+02, 2.02996240e+03,
          1.83489441e+03, 5.72282043e+02, 1.62577979e+03, 9.74044983e+02,
          2.77984955e+02, 8.93483963e+01, 1.36784134e+02, 6.05058716e+02,
          2.13133398e+03, 5.65740295e+02, 2.33607452e+02, 1.25658615e+02,
          4.11580811e+02, 3.92742706e+02, 3.84421326e+02, 4.24446191e+03,
          4.07687383e+04, 4.89927795e+02, 2.68774841e+02, 1.69143402e+02,
          4.01886670e+03, 2.11865503e+03, 1.34148010e+03, 2.75875659e+03,
          4.94760449e+03, 3.55112598e+03, 3.93347607e+03, 5.94616992e+03,
          3.97468018e+03, 1.62497168e+03, 1.99889197e+03, 7.41116650e+03,
          1.54995469e+04, 9.54301270e+02, 1.65640149e+03, 1.42443274e+03,
          7.78844543e+02, 5.47888977e+02, 6.79250061e+02, 1.55934131e+03,
          4.90751904e+03, 1.26290271e+03, 5.23131592e+02, 4.43265961e+02,
          1.31123608e+03, 2.58496387e+03, 6.49705225e+03, 1.39916963e+04,
          4.77472578e+04, 1.58965979e+03, 6.22761719e+02, 6.86476624e+02 ]
      - [ 0., 0., 0., 0., 2.39999985e+02, 0., 0., 0., 0., 0., 0., 0., 0.,
          0., 0., 0., 0., 0., 0., 0., 4.79999969e+02, 0., 0., 0., 0., 0.,
          0., 0., 2.39999985e+02, 0., 0., 0., 7.26491089e+01,
          4.66690445e+01, 2.23606796e+01, 1.58113880e+01, 8.25486755e+02,
          1.34164085e+01, 4.24264050e+00, 0., 0., 0., 0., 3.16227770e+00,
          3.16227770e+00, 0., 1.41421342e+00, 3.16227770e+00,
          1.44973663e+02, 5.73075981e+01, 4.12550201e+01, 4.77016525e+01,
          1.29742346e+03, 2.23606796e+01, 4.24264050e+00, 0., 0.,
          5.65685368e+00, 2.68328171e+01, 1.14235744e+01, 7.00557861e+02,
          1.78885441e+01, 3.13421917e+01, 1.26491108e+01 ]
      - [ 1.55409290e+03, 6.85217712e+02, 4.28982056e+02, 7.34278320e+02,
          1.43850854e+03, 9.52510742e+02, 8.29604309e+02, 3.40346094e+03,
          3.16175952e+03, 8.79990723e+02, 6.27859375e+02, 4.01707001e+02,
          9.55304871e+02, 5.37241577e+02, 1.02352667e+03, 9.02637207e+02,
          1.64471973e+03, 8.35248413e+02, 1.73960242e+03, 2.44236963e+03,
          4.52077441e+03, 3.70980591e+03, 5.57641504e+03, 3.92660620e+03,
          3.89295752e+03, 2.54431372e+03, 1.60188098e+03, 4.22760156e+03,
          7.44438721e+03, 3.67036450e+03, 1.47393262e+03, 1.40030298e+03,
          3.02671533e+03, 3.54830396e+03, 2.96896851e+03, 3.05932837e+03,
          2.06569507e+03, 3.28008984e+03, 3.19332373e+03, 4.25189307e+03,
          7.09531787e+03, 1.94290332e+03, 2.51329004e+03, 3.17184155e+03,
          2.46540063e+03, 9.01683472e+02, 3.02069873e+03, 3.74310596e+03,
          6.03644092e+03, 7.03438037e+03, 3.91511011e+03, 6.05190820e+03,
          9.34227246e+03, 3.71022095e+03, 4.90419922e+03, 5.11326904e+03,
          9.61523145e+03, 5.51810205e+03, 5.98155420e+03, 5.82891260e+03,
          1.12832295e+04, 5.38737549e+03, 3.78761792e+03, 5.02772754e+03 ]
      - [ 4.34664459e+02, 4.42561157e+02, 7.57382080e+02, 2.24086334e+02,
          3.99999962e+01, 5.10746277e+02, 1.27222571e+03, 1.24886816e+03,
          1.10089587e+03, 5.60851074e+03, 4.19292383e+04, 2.24479663e+03,
          4.89816064e+03, 2.04082434e+03, 5.64081299e+02, 8.28777832e+02,
          4.16808868e+02, 3.83042114e+02, 2.69623926e+03, 2.98296313e+03,
          2.46384033e+03, 3.48094421e+02, 3.86887543e+02, 1.19262061e+03,
          1.52311255e+03, 1.06264880e+03, 2.68360352e+03, 4.67891504e+03,
          4.43006836e+03, 9.28411987e+02, 1.65920459e+03, 4.36537109e+02,
          1.00068936e+04, 7.08817285e+03, 6.93996924e+03, 6.46140820e+03,
          6.87058643e+03, 5.93641211e+03, 6.46274170e+03, 6.15722705e+03,
          1.07938428e+04, 2.47321631e+03, 1.03037490e+04, 2.67768828e+04,
          1.91534180e+04, 6.92669861e+02, 2.14968359e+03, 1.08205586e+04,
          1.11773669e+03, 5.26371399e+02, 2.92741180e+02, 4.27889801e+02,
          5.96353821e+02, 4.15760071e+02, 4.45312744e+02, 1.50215796e+03,
          4.26205762e+03, 8.39827441e+03, 8.13223584e+03, 1.46904053e+04,
          1.15113984e+04, 7.86050928e+03, 9.53614355e+03, 9.83376074e+03 ]
      - [ 5.07393604e+03, 8.71286621e+03, 7.91640771e+03, 1.97050623e+03,
          1.37774048e+02, 4.70112000e+01, 4.10121918e+01, 9.05538464e+00,
          4.59999962e+01, 3.40634842e+01, 4.70543213e+03, 1.65371289e+03,
          6.34780957e+03, 2.54866675e+03, 5.87596924e+02, 1.14504492e+03,
          1.15590381e+04, 3.18012363e+04, 1.50715215e+04, 1.93648125e+04,
          1.25377090e+04, 3.77127563e+02, 1.12294519e+03, 2.45991650e+03,
          8.21853760e+02, 6.53416748e+02, 9.54073425e+02, 4.37678418e+03,
          6.56485205e+03, 1.52413818e+03, 4.95609741e+02, 7.74786133e+02,
          1.72132012e+04, 9.23499023e+03, 1.45521865e+04, 8.42993652e+03,
          4.55276514e+03, 3.64622607e+03, 4.26827686e+03, 7.16348242e+03,
          1.04811455e+04, 5.90576172e+03, 1.59431465e+04, 2.62677793e+04,
          3.73719453e+04, 2.15732188e+04, 7.24267578e+03, 1.14027363e+04,
          1.95238691e+04, 1.97458770e+04, 2.24800996e+04, 1.17141748e+04,
          1.63196426e+04, 7.92350781e+03, 2.06845078e+04, 2.49530137e+04,
          5.12576133e+04, 1.37851611e+04, 1.40087559e+04, 1.15198047e+04,
          2.24507969e+04, 1.40785176e+04, 1.79280156e+04, 2.02614492e+04 ]
      - [ 2.62020325e+02, 6.31855011e+01, 2.41758194e+01, 4.35490341e+01,
          6.40266266e+01, 6.28328209e+01, 6.80166321e+01, 3.26304474e+01,
          1.63474426e+02, 7.99376068e+01, 4.60950897e+02, 3.99510718e+03,
          5.70627881e+03, 9.02322388e+02, 1.82694427e+02, 4.73177795e+01,
          6.50675598e+02, 2.80765778e+02, 1.49680267e+02, 2.64877533e+02,
          1.85890503e+03, 3.95151392e+03, 4.57032074e+02, 1.05174973e+02,
          3.98122284e+02, 3.83559937e+02, 3.06396942e+02, 5.11896088e+02,
          3.06922827e+03, 3.51218677e+03, 7.87864685e+02, 2.16255737e+02,
          1.79277661e+03, 8.92950363e+01, 2.08960007e+02, 1.54302734e+02,
          1.38122363e+04, 6.02653503e+02, 1.27782646e+02, 6.80114899e+01,
          1.59955371e+03, 1.58663925e+02, 1.97506256e+02, 5.15355078e+03,
          4.81721133e+04, 1.59042285e+03, 2.81616028e+02, 8.87171478e+01,
          1.04833801e+03, 8.99325378e+02, 7.84697693e+02, 1.04242139e+03,
          1.72544861e+03, 1.54951172e+03, 9.77393066e+02, 9.75509460e+02,
          1.47230273e+03, 1.69689929e+03, 1.26806433e+03, 2.51911597e+03,
          2.66168774e+03, 1.61663489e+03, 1.72539929e+03, 1.08821814e+03 ]
      - [ 2.08526047e+02, 2.54558411e+01, 0., 1.53278027e+01,
          5.56944695e+01, 2.06061745e+01, 1.27279215e+01, 3.35936852e+01,
          1.16106209e+02, 3.64917145e+02, 1.99270645e+02, 7.36739380e+02,
          2.33852393e+03, 1.61227203e+02, 9.77436218e+01, 9.36253128e+01,
          2.89445709e+02, 2.24462723e+02, 2.94479004e+02, 2.34903613e+03,
          1.24013818e+04, 5.74821472e+02, 4.12513641e+02, 3.63180115e+02,
          6.62736084e+02, 3.85229614e+02, 2.14257004e+02, 2.13161279e+03,
          1.12185498e+04, 1.25401611e+02, 2.19755280e+02, 1.83131622e+02,
          1.33430920e+03, 1.97123755e+03, 2.50683838e+03, 1.38438464e+03,
          1.75860791e+03, 8.02319519e+02, 2.01965430e+03, 1.06210583e+03,
          4.29296875e+03, 4.15164844e+03, 3.42621411e+03, 3.12907373e+03,
          3.91209302e+03, 3.79306885e+03, 3.18653906e+03, 4.02377490e+03,
          2.11660430e+04, 5.34800732e+03, 3.83901953e+03, 1.33116406e+04,
          2.03507969e+04, 4.38588916e+03, 5.89128027e+03, 2.83541289e+04,
          6.59353662e+03, 1.88372290e+03, 6.81780664e+03, 7.66025977e+03,
          2.18708828e+04, 7.56429102e+03, 4.68192383e+03, 9.65558203e+03 ]
      - [ 5.99999962e+01, 0., 0., 0., 0., 0., 0., 0., 1.15999992e+02,
          1.44044861e+03, 3.98822266e+03, 1.25289941e+04, 1.68597051e+04,
          2.05199658e+03, 1.17085852e+03, 1.53229248e+03, 8.41164844e+03,
          6.21657373e+03, 3.33124902e+03, 2.03612366e+03, 1.96912854e+03,
          1.78802539e+03, 1.64707153e+03, 5.62018250e+02, 7.57395203e+02,
          4.84364563e+02, 6.48764648e+02, 1.65676514e+02, 1.03119495e+03,
          1.17670235e+02, 1.11885059e+03, 5.84507471e+03, 2862.,
          8.60232449e+00, 0., 4.77415237e+01, 4.61600075e+01,
          2.52315464e+01, 4.96985168e+01, 5.57344604e+02, 9.74925586e+03,
          9.80959766e+03, 1.01890137e+04, 1.74410254e+04, 5.91577881e+03,
          8.08006201e+03, 7.23307520e+03, 4.08875464e+03, 1.26690605e+04,
          7.23823389e+03, 6.87212549e+03, 6.29885791e+03, 1.41915107e+04,
          1.01313682e+04, 1.19102686e+04, 1.30726650e+04, 1.36079648e+04,
          3.98367480e+03, 2.80319824e+03, 3.67192700e+03, 5.21600928e+03,
          2.92695410e+03, 3.52057837e+03, 9.93151074e+03 ]
      - [ 6.02294043e+03, 1.45584058e+03, 0., 0., 44., 0.,
          8.10063934e+01, 3.38934644e+03, 8.75624316e+03, 2.12369629e+03,
          2.70705859e+03, 1.89450989e+03, 2.77608740e+03, 4.25452423e+02,
          2.88905444e+03, 6.79033154e+03, 9.48812622e+02, 1.97860474e+02,
          4.85026474e+01, 1.06302597e+02, 7.35706787e+02, 7.56835266e+02,
          4.01254547e+02, 3.41218536e+02, 6.04789734e+02, 4.44014313e+02,
          3.42383698e+02, 3.51067200e+02, 5.94502014e+02, 9.05895874e+02,
          1.02805212e+03, 1.44652942e+03, 3.63489209e+03, 8.59973145e+01,
          1.61564377e+02, 1.34677292e+02, 8.16479416e+01, 8.27404480e+02,
          1.21166943e+03, 2.35623438e+03, 5.00331250e+03, 2.73522095e+03,
          4.52590723e+03, 1.22322891e+04, 1.26179111e+04, 8.49854785e+03,
          7.17002148e+03, 6.20550098e+03, 2.35983545e+03, 1.72102966e+03,
          7.19695740e+02, 8.66539734e+02, 1.27076514e+03, 8.56645386e+02,
          2.00441675e+03, 1.58060718e+03, 2.83718872e+03, 2.93538794e+03,
          2.87230371e+03, 8.39247852e+03, 7.41254688e+03, 1.86851477e+03,
          3.41207275e+03, 4.40330615e+03 ]
      - [ 4.86283594e+03, 4.36715186e+03, 1.86756088e+02, 5.27603613e+03,
          5.51880859e+03, 3.38400146e+03, 6.67923193e+03, 2.40195508e+03,
          3.19420679e+03, 2.38769067e+03, 3.95740894e+03, 2.14482983e+03,
          6.08788574e+03, 3.53482715e+03, 4.87032373e+03, 1.03002917e+03,
          5.58908264e+02, 4.56243591e+01, 3.32956451e+02, 1.29320862e+03,
          5.66967334e+03, 1.45440320e+03, 8.95714050e+02, 6.66903259e+02,
          3.06191193e+02, 6.49777527e+02, 1.27127893e+03, 2.83539062e+03,
          5.79103027e+03, 7.39682959e+03, 1.51251416e+03, 4.90895050e+02,
          1.22145781e+04, 1.59628115e+04, 2.20046133e+04, 5.30426465e+03,
          5.00926660e+03, 1.24507168e+04, 1.40080664e+04, 1.34971553e+04,
          1.59057764e+04, 1.27832803e+04, 3.44139160e+03, 3.76225244e+03,
          5.45345166e+03, 1.14457676e+04, 2.44395361e+03, 7.85857422e+03,
          2.17338843e+03, 4.37310120e+02, 9.75219727e+02, 6.52389941e+03,
          1.14758926e+04, 7.88727686e+03, 1.07393677e+03, 1.03740088e+04,
          7.52176123e+03, 1.35506777e+04, 1.16257803e+04, 6.20142627e+03,
          1.23512588e+04, 5.19526875e+04, 3.38450757e+03, 1.35191035e+04 ]
      - [ 7.11225830e+03, 1.37530078e+03, 7.70970398e+02, 4.58002655e+02,
          1.56198767e+03, 5.84624451e+02, 7.18234192e+02, 3.97665100e+02,
          3.99057220e+02, 1.67745132e+02, 1.21339561e+02, 3.75515327e+01,
          4.65365356e+02, 2.02642269e+01, 2.91903412e+02, 1.07421899e+03,
          3.85898145e+03, 3.10967920e+03, 2.10532056e+03, 2.20888892e+03,
          2.50682520e+03, 8.70925171e+02, 3.42685571e+03, 5.66025000e+03,
          4.98809668e+03, 6.96540283e+02, 1.07152026e+03, 1.98053394e+03,
          9.34904785e+02, 1.60865552e+03, 5.58451611e+03, 4.29948047e+03,
          4.23060205e+03, 4.41437598e+03, 1.68607275e+03, 1.83374329e+03,
          2.70471753e+03, 1.60776819e+03, 1.78118628e+03, 4.60476367e+03,
          3.27984424e+03, 6.24498596e+02, 2.98930054e+02, 3.12226837e+02,
          3.34152161e+02, 1.60344376e+02, 6.76657593e+02, 1.46022888e+03,
          5.08004736e+03, 4.69281299e+03, 2.11641465e+04, 4.69932520e+03,
          6.10744678e+03, 1.98542822e+03, 3.23581738e+03, 4.90778027e+03,
          9.50146973e+03, 5.78322217e+03, 1.75667891e+04, 1.00493525e+04,
          7.51029297e+03, 4.08734570e+03, 4.24389014e+03, 2.91282007e+03 ]
      - [ 5.69715527e+03, 1.25355652e+02, 9.32906494e+01, 2.78115143e+02,
          1.25526840e+02, 1.28062477e+01, 5.65685368e+00, 1.38287195e+03,
          6.66397803e+03, 1.67389722e+03, 1.90372510e+03, 2.06308838e+03,
          1.87322461e+04, 1.48395557e+03, 1.70890894e+03, 3.65722290e+03,
          7.97331604e+02, 6.31255432e+02, 6.33207153e+02, 1.60530029e+03,
          1.28022080e+04, 2.29434521e+03, 6.97928223e+02, 4.49489868e+02,
          4.44089050e+02, 5.06114014e+02, 9.79677612e+02, 7.53851196e+02,
          8.24346094e+03, 2.26533447e+03, 7.07072632e+02, 1.94203934e+02,
          1.03004844e+04, 3.47910736e+02, 8.05670410e+02, 1.39006641e+03,
          1.36269897e+03, 7.91366333e+02, 5.48238220e+02, 1.49313501e+03,
          1.08061084e+04, 2.51582495e+03, 2.88792700e+03, 7.68237109e+03,
          3.40044492e+04, 4.00499536e+03, 1.98451892e+03, 2.96489648e+03,
          4.03440234e+03, 9.90246094e+02, 1.32173425e+03, 3.08197070e+03,
          3.15373887e+04, 5.92837695e+03, 1.75437341e+03, 8.60079773e+02,
          2.24235303e+03, 1.35066724e+03, 9.54471863e+02, 3.01927686e+03,
          2.91599453e+04, 5.43047998e+03, 1.34897034e+03, 2.14168896e+03 ]
      - [ 1.27683350e+03, 1.96630295e+02, 1.21136215e+02, 4.37373085e+01,
          3.70548096e+02, 2.28009659e+02, 3.68212860e+02, 2.61694916e+02,
          5.61428040e+02, 9.98997498e+01, 1.88779587e+02, 8.99222870e+01,
          5.23730225e+02, 1.77825119e+02, 1.96367050e+02, 6.78115967e+02,
          2.18591284e+03, 6.65805176e+02, 2.50412399e+02, 2.58646729e+02,
          1.00621454e+03, 6.11265808e+02, 6.23824890e+02, 1.44719299e+03,
          1.29263647e+03, 2.87671997e+02, 2.43114304e+02, 1.89794479e+02,
          7.92331238e+02, 1.00016730e+03, 1.84576404e+03, 1.63479504e+03,
          2.77749609e+03, 2.87490625e+03, 2.67534204e+03, 3.92925537e+03,
          3.94310156e+03, 2.90789673e+03, 2.11655273e+03, 4.04816309e+03,
          3.69775342e+03, 1.80706409e+03, 1.35167529e+03, 1.48803613e+03,
          7.73846863e+02, 4.17166382e+02, 5.80875671e+02, 3.86016479e+02,
          2.77290308e+03, 1.87312488e+03, 2.49107910e+03, 4.55558252e+03,
          2.45918774e+03, 9.16838379e+02, 1.74893103e+03, 6.76109375e+03,
          4.83655420e+03, 3.28661426e+03, 3.89094336e+03, 3.70172119e+03,
          4.15040430e+03, 2.30693677e+03, 3.88804370e+03, 2.70032495e+03 ]
      - [ 2.29979721e+02, 1.19558731e+02, 5.70970421e+01, 1.06628899e+02,
          1.17839272e+02, 1.09961937e+02, 1.93050858e+02, 3.76240234e+02,
          8.12890015e+02, 1.82230377e+02, 4.50406189e+01, 1.03880524e+02,
          2.01494980e+02, 8.08532104e+01, 1.40562653e+02, 6.81479950e+01,
          2.16234814e+03, 1.67806564e+02, 8.88117065e+01, 1.69095749e+02,
          4.19526917e+02, 1.16989006e+02, 4.06962769e+02, 9.87862366e+02,
          1.28862354e+03, 3.88960541e+02, 2.00140686e+02, 4.05356476e+02,
          6.51980615e+03, 1.59512080e+04, 2.67916577e+03, 2.35737579e+02,
          4.20898242e+03, 1.51608398e+02, 2.41660919e+01, 2.13578510e+01,
          2.43245544e+01, 1.20879097e+01, 9.94143982e+01, 3.40873779e+03,
          1.32786289e+04, 4.34248193e+03, 4.23428271e+03, 1.94965449e+04,
          1.43967559e+04, 3.44919434e+03, 2.74178369e+03, 1.18709375e+04,
          2.92666836e+04, 8.04035596e+03, 9.17250098e+03, 1.88400898e+04,
          2.70633496e+04, 8.81670020e+03, 8.76008984e+03, 4.20236953e+04,
          1.91414277e+04, 5.68774316e+03, 4.19164453e+03, 5.68619482e+03,
          7.05313184e+03, 4.22353613e+03, 6.25295020e+03, 1.89206445e+04 ]
      - [ 4.70599219e+03, 2.04538049e+03, 2.25645801e+03, 3.53731616e+03,
          2.83954419e+03, 1.35503723e+03, 1.06432446e+03, 3.45036108e+03,
          4.30176514e+03, 8.67990784e+02, 1.62610876e+03, 2.69436279e+03,
          3.37728442e+03, 1.15159460e+03, 1.82747937e+03, 1.60029968e+03,
          3.27332373e+03, 8.13247375e+02, 3.80156677e+02, 1.37823450e+03,
          5.77287988e+03, 2.21990894e+03, 4.38941943e+03, 1.25801445e+04,
          1.25263398e+04, 6.66129688e+03, 4.40993213e+03, 4.93766748e+03,
          6.95208789e+03, 8.50628662e+02, 2.32198804e+03, 4.39837842e+03,
          6.97299902e+03, 4.95044873e+03, 1.02952588e+04, 1.39417646e+04,
          8.08985156e+03, 5.14324414e+03, 7.44930029e+03, 7.71200684e+03,
          8.94239648e+03, 2.98945728e+03, 5.15509277e+03, 4.89032715e+03,
          2.50269531e+03, 1.97058154e+03, 2.04824976e+03, 5.05531250e+03,
          1.22963877e+04, 7.37510449e+03, 4.05528442e+03, 4.16322168e+03,
          5.45185693e+03, 2.22477686e+03, 3.80668579e+03, 3.50231836e+03,
          5.89932861e+03, 9.75239551e+03, 1.80164355e+04, 1.71052227e+04,
          1.07162637e+04, 7.04604688e+03, 4.20891992e+03, 8.44951758e+03 ]
      - [ 1.17994312e+03, 1.29070447e+03, 2.89985693e+03, 2.79468579e+03,
          1.13176758e+03, 2.99999981e+01, 1.07490921e+02, 0.,
          2.21722339e+03, 4.58275482e+02, 3.28960620e+03, 1.07654971e+04,
          2.40583398e+03, 9.99017181e+01, 6.15201073e+01, 9.66854248e+02,
          4.76998682e+03, 3.82561499e+03, 8.27511328e+03, 2.47270850e+03,
          3.74607422e+03, 2.22472705e+03, 2.15436060e+03, 1.97508838e+03,
          2.77761401e+03, 1.64910925e+03, 3.40553711e+03, 2.47853467e+03,
          2.19761499e+03, 6.34084534e+02, 1.92419690e+03, 4.30692725e+03,
          4.94714355e+03, 1.74938440e+03, 3.82717065e+03, 4.41084277e+03,
          3.60483862e+03, 2.57711938e+03, 2.26196362e+03, 4.57854639e+03,
          4.36402344e+03, 1.24860046e+03, 4.36968457e+03, 3.83063647e+03,
          1.44345154e+03, 1.10903113e+03, 2.72987988e+03, 3.79640503e+03,
          3.00274829e+03, 2.01712129e+04, 5.14550391e+04, 3.61154517e+03,
          4.56421484e+03, 8.32298645e+02, 9.45251953e+02, 7.37145996e+02,
          3.86425830e+03, 1.67231055e+04, 2.57801504e+04, 2.93020654e+03,
          4.69162939e+03, 1.19539722e+03, 1.11458398e+03, 1.68753296e+03 ]
      - [ 2.27489087e+03, 6.49945862e+02, 1.63699072e+03, 9.96094482e+02,
          2.59428052e+03, 9.97037842e+02, 8.16565735e+02, 1.50004956e+03,
          1.09884619e+03, 9.56770691e+02, 9.88355713e+02, 8.54778015e+02,
          4.18375342e+03, 2.35031274e+03, 1.57171252e+03, 1.19628589e+03,
          4.18425781e+03, 2.14311304e+03, 1.09495569e+03, 1.17596289e+03,
          5.02537500e+03, 3.40284253e+03, 2.73877148e+03, 1.56945337e+03,
          4.00576855e+03, 2.08841034e+02, 2.04352219e+02, 4.63950897e+02,
          1.98151697e+03, 4.43678516e+03, 1.47161133e+03, 2.78117920e+03,
          4.15232422e+03, 3.36873755e+03, 5.18877002e+03, 7.19576758e+03,
          1.02934189e+04, 6.01554980e+03, 3.08162402e+03, 2.86720068e+03,
          4.16164111e+03, 1.23282886e+03, 1.80809106e+03, 2.13586670e+03,
          3.97840771e+03, 2.82517334e+03, 3.53243994e+03, 2.89173682e+03,
          1.04171260e+04, 6.86687305e+03, 4.82593457e+03, 9.66903906e+03,
          2.11385508e+04, 1.53719980e+04, 6.13256982e+03, 9.30322266e+03,
          1.64325293e+04, 5.18116064e+03, 6.07617139e+03, 9.10011328e+03,
          1.35212236e+04, 1.99681543e+04, 6.86794971e+03, 1.06028760e+04 ]
      - [ 1.92276025e+03, 6.98505432e+02, 2.69490936e+02, 6.54415710e+02,
          6.17662231e+02, 2.47955673e+02, 2.49202835e+02, 4.18275848e+02,
          1.80942285e+03, 3.46195740e+02, 4.31375195e+03, 3.08945142e+03,
          7.46417432e+03, 9.95656372e+02, 1.39878894e+03, 1.50482544e+02,
          3.29703540e+03, 8.50519287e+02, 1.72624622e+03, 1.00308320e+04,
          1.71916973e+04, 2.36874316e+03, 1.07519263e+03, 2.50691064e+03,
          1.77196655e+03, 2.61184875e+02, 4.39418518e+02, 2.36938477e+03,
          2.38947383e+04, 1.63393213e+03, 5.19533325e+02, 6.08309082e+02,
          2.16337451e+03, 2.60281812e+03, 2.83315015e+03, 1.89442114e+03,
          1.80901636e+03, 4.07450043e+02, 6.95620728e+02, 4.28375885e+02,
          2.76707520e+03, 1.81048718e+03, 2.39370068e+03, 4.35432666e+03,
          4.12543555e+03, 2.98989331e+03, 1.24961255e+03, 8.60008606e+02,
          7.61927832e+03, 5.42348340e+03, 3.15515894e+03, 2.92345762e+04,
          4.32765312e+04, 5.33836523e+03, 3.28075977e+03, 2.58571265e+03,
          4.47933740e+03, 1.85121460e+03, 3.50713721e+03, 6.93354150e+03,
          4.69088203e+04, 5.98322412e+03, 2.75243799e+03, 3.19586230e+03 ]
      - [ 2.21972031e+02, 0., 7.61577320e+00, 9.05538464e+00,
          6.19999962e+01, 1.02956295e+01, 0., 2.71698761e+01,
          3.50224792e+02, 8.81420105e+02, 1.72004846e+03, 1.19764648e+03,
          8.47962402e+02, 3.93726562e+02, 1.81643036e+02, 1.84390869e+01,
          1.39819641e+02, 1.15432034e+01, 1.02956295e+01, 1.77263088e+01,
          1.20461975e+02, 7.21206284e+01, 2.68408875e+02, 3.48345856e+02,
          1.54709375e+04, 4.80452246e+03, 1.42200769e+03, 1.22056885e+03,
          1.65761389e+03, 5.00872498e+02, 3.70598663e+02, 1.88504456e+02,
          1.25970020e+03, 6.19263611e+02, 2.34355072e+02, 2.01460114e+02,
          3.84124512e+02, 1.66597672e+02, 3.80575989e+02, 3.35081329e+02,
          7.35095703e+02, 5.93475769e+02, 3.27150464e+03, 1.56377881e+04,
          3.97401025e+03, 1.05737451e+03, 1.30521216e+03, 5.52549744e+02,
          1.77580847e+03, 6.65527405e+02, 5.75537598e+02, 4.19296533e+03,
          3.79727539e+03, 8.95189880e+02, 4.85200195e+02, 9.09519104e+02,
          5.60049512e+03, 3.20219482e+03, 4.52726270e+03, 1.38997764e+04,
          8.22488379e+03, 1.30642407e+03, 1.78419873e+03, 1.51681567e+03 ]
      - [ 2.30869064e+02, 6.51554031e+01, 3.19798717e+01, 5.50164452e+01,
          1.31716370e+02, 4.55216675e+01, 6.85078812e+01, 7.58283768e+01,
          3.07238800e+02, 2.72175415e+02, 1.61839828e+02, 1.26287468e+02,
          3.02052917e+02, 1.20110130e+02, 3.00200012e+02, 1.65324738e+02,
          3.24458313e+02, 2.36963348e+02, 1.43008682e+02, 1.13922272e+02,
          3.02263855e+02, 1.86744949e+02, 2.96397552e+02, 2.94433075e+02,
          5.10337219e+02, 5.28076904e+02, 4.72302948e+02, 6.62273987e+02,
          1.20303357e+03, 5.99505188e+02, 5.71489441e+02, 2.73408600e+02,
          1.60395020e+03, 9.15297607e+02, 1.31964929e+03, 3.26072119e+03,
          4.89165283e+03, 1.48518689e+03, 1.31463367e+03, 1.47980249e+03,
          1.45580554e+03, 8.47563477e+02, 6.57854004e+02, 2.36308545e+03,
          3.25891455e+03, 9.76924377e+02, 1.75114392e+03, 1.81643750e+03,
          1.92750806e+03, 1.63211719e+03, 7.83717957e+02, 4.19910742e+03,
          6.56138477e+03, 1.92143457e+03, 6.67781250e+03, 8.76125586e+03,
          1.70871191e+03, 1.89112244e+03, 2.48653320e+03, 9.10666016e+03,
          1.13524805e+04, 3.62356494e+03, 3.54298413e+03, 1.25105107e+04 ]
      - [ 5.26258240e+02, 5.02368103e+02, 7.22113037e+02, 5.52499268e+02,
          1.21486824e+02, 0., 1.17726994e+01, 2.83088074e+01,
          8.59378128e+01, 4.42240181e+01, 7.21110201e+00, 1.90013123e+02,
          6.60382690e+02, 1.84088470e+02, 1.59502808e+02, 3.32097229e+02,
          2.33339294e+02, 1.01774406e+02, 3.62114258e+02, 7.24320374e+02,
          4.37523346e+02, 7.29512482e+01, 2.26274147e+01, 3.94606400e+01,
          1.14572281e+02, 1.44807159e+02, 5.96876038e+02, 1.83480505e+03,
          4.00512378e+03, 1.05045825e+03, 7.54460938e+02, 4.08122589e+02,
          1.15253174e+03, 1.74179541e+03, 1.63797742e+03, 1.18810532e+02,
          7.03098999e+02, 3.37120361e+01, 2.60548687e+01, 2.75349388e+01,
          7.67603027e+02, 1.11363672e+03, 3.25819189e+03, 2.10072559e+03,
          8.27326355e+02, 1.90774063e+02, 2.07675507e+02, 6.72961853e+02,
          4.59814062e+03, 3.10821729e+03, 2.66894165e+03, 2.38483926e+04,
          1.57774473e+04, 1.28355576e+02, 3.38046967e+02, 4.14720703e+02,
          6.63075867e+02, 1.16792786e+03, 3.69869531e+03, 9.26656152e+03,
          3.66482266e+04, 2.72905347e+03, 1.82426001e+03, 1.20742700e+03 ]
      - [ 5.76935913e+02, 8.59251480e+01, 1.98863846e+02, 5.40156311e+02,
          4.15359424e+03, 6.51826221e+03, 2.59360303e+03, 3.48466217e+02,
          1.24842712e+03, 8.75162598e+02, 1.97476831e+03, 3.97390088e+03,
          3.25402051e+03, 2.82148476e+01, 2.06601334e+02, 1.77750381e+02,
          9.11131714e+02, 5.68638794e+02, 2.69818481e+03, 1.97060371e+04,
          9.15533398e+03, 2.35660962e+03, 2.40197021e+03, 1.48155432e+03,
          3.07421289e+03, 3.67882104e+03, 4.40499512e+03, 1.38110664e+04,
          6.72727588e+03, 1.85871802e+03, 2.64557764e+03, 1.45954175e+03,
          1.20663311e+04, 8.10485474e+02, 1.09735718e+03, 3.28535181e+03,
          2.70178833e+03, 1.46595068e+03, 1.10653931e+03, 4.10530957e+03,
          1.00537021e+04, 2.83883276e+03, 2.32225171e+03, 1.00799551e+04,
          1.96268652e+04, 8.32262500e+03, 6.21064697e+03, 7.46726855e+03,
          3.98193848e+03, 3.23412695e+03, 2.52283960e+03, 2.16194629e+04,
          1.18240273e+04, 3.21599316e+03, 1.65199280e+03, 2.49962891e+03,
          3.13303516e+03, 2.09096826e+03, 3.31449951e+03, 1.62596826e+04,
          1.39126738e+04, 3.22288208e+03, 2.72347339e+03, 4.22958350e+03 ]
      - [ 8.93830750e+02, 3.09156860e+02, 9.36543198e+01, 1.62904327e+02,
          3.40822968e+02, 6.60011063e+01, 2.60582581e+02, 3.56328812e+01,
          1.13607948e+02, 7.19273834e+01, 1.56489243e+02, 7.75912720e+02,
          6.45826233e+02, 3.82276154e+02, 5.94381592e+02, 7.69718750e+02,
          1.29123828e+03, 2.73508911e+02, 1.87762665e+02, 1.74402481e+02,
          5.93735291e+02, 2.45395538e+02, 2.37696854e+02, 1.08419426e+02,
          5.12017578e+02, 3.68703125e+02, 3.39935608e+02, 5.21648682e+02,
          5.51063477e+02, 3.34145691e+02, 2.90650024e+02, 1.01056659e+03,
          7.10391174e+02, 2.49094254e+02, 8.54228363e+01, 9.25809479e+01,
          2.73373779e+02, 2.34821198e+02, 1.59771698e+02, 3.22260773e+02,
          1.80915320e+03, 1.17070142e+03, 9.50135925e+02, 2.34476611e+03,
          1.68537024e+03, 8.88557190e+02, 5.49696106e+02, 3.43595703e+02,
          6.46138721e+03, 7.66977441e+03, 5.36442822e+03, 5.40152588e+03,
          4.53564160e+03, 5.70702246e+03, 4.39535059e+03, 4.78460791e+03,
          5.06877637e+03, 4.62843604e+03, 3.33432471e+03, 4.96055322e+03,
          6.75250049e+03, 4.88185449e+03, 5.55803955e+03, 4.56884131e+03 ]
      - [ 1.82492416e+02, 4.32628250e+01, 1.21370934e+02, 1.34308472e+02,
          4.12964630e+02, 2.88260010e+02, 2.04693710e+02, 6.79326553e+01,
          2.70637909e+02, 1.37480713e+02, 4.54213837e+02, 1.02948896e+04,
          1.40017539e+04, 1.79288605e+02, 4.28204041e+01, 2.08823204e+01,
          5.39206665e+02, 4.37361938e+02, 6.27064148e+02, 7.24877380e+02,
          1.35554761e+03, 1.09443250e+03, 9.73977173e+02, 3.18879364e+02,
          6.93992371e+02, 5.09687927e+02, 4.89448425e+02, 7.66667114e+02,
          1.26525366e+03, 4.55962738e+02, 4.11575134e+02, 1.43460312e+02,
          3.83038391e+02, 9.37455063e+01, 2.72896179e+02, 4.94670593e+02,
          1.72368372e+03, 3.88311279e+02, 1.97184006e+02, 1.43256332e+02,
          5.40861267e+02, 1.65833878e+02, 1.01359485e+03, 3.48763789e+04,
          2.25874961e+04, 6.68558655e+02, 5.30756149e+01, 6.24885330e+01,
          9.20946045e+02, 8.88064026e+02, 1.44352661e+03, 2.14732886e+03,
          3.47108447e+03, 2.32307861e+03, 1.50676611e+03, 1.28300537e+03,
          1.59063416e+03, 1.40374207e+03, 1.17844751e+03, 1.33469812e+03,
          1.66367957e+03, 9.55265564e+02, 1.19961133e+03, 6.47911621e+02 ]
      - [ 4.71572845e+02, 4.51914291e+01, 7.21110201e+00, 0.,
          2.70880051e+01, 7.61577320e+00, 8.94427204e+00, 3.41813278e+01,
          1.72041626e+02, 3.70391350e+01, 3.88567291e+02, 1.70763818e+03,
          3.31433813e+03, 1.05145679e+03, 5.60673828e+02, 5.15725525e+02,
          6.98369263e+02, 4.15609680e+02, 1.14135887e+02, 1.51979874e+02,
          5.06750641e+02, 9.75516815e+01, 2.09235077e+02, 1.90084991e+02,
          4.39593933e+02, 3.46128601e+02, 6.85660156e+02, 1.34049402e+03,
          1.83258801e+03, 1.13479492e+03, 1.05686023e+03, 7.72025024e+02,
          7.16404846e+02, 0., 0., 0., 0., 0., 0., 1.14017534e+01,
          7.69871033e+02, 1.77273462e+03, 2.90781958e+03, 4.17669434e+03,
          5.47016162e+03, 2.65488232e+03, 1.52893762e+03, 5.53637329e+02,
          1.12960144e+03, 3.90862823e+02, 3.25590149e+02, 1.57749207e+02,
          2.97696259e+02, 1.55238983e+02, 5.62080994e+02, 9.39692810e+02,
          2.66037329e+03, 4.13223438e+03, 4.77309082e+03, 3.11759644e+03,
          3.67016455e+03, 1.63363550e+03, 1.67714368e+03, 1.61825989e+03 ]
      - [ 4.64724561e+03, 7.03260010e+02, 2.98795715e+02, 1.84459427e+02,
          3.05167999e+02, 0., 0., 2.43427689e+02, 1.09735535e+03,
          4.81701111e+02, 4.88814606e+02, 8.11231262e+02, 1.19957617e+03,
          2.68176978e+03, 4.04896509e+03, 4.06338745e+03, 1.17054077e+03,
          4.57658752e+02, 7.61937073e+02, 1.01011078e+03, 2.00522839e+03,
          9.46296692e+02, 2.44549219e+03, 9.84642822e+02, 5.00135956e+02,
          3.39386780e+02, 5.97985413e+02, 1.00458325e+03, 2.07482495e+03,
          1.45493604e+03, 9.25505249e+02, 6.89497437e+02, 1.35518677e+03,
          1.25273328e+03, 5.75046143e+02, 4.34443146e+02, 8.67276978e+02,
          1.33353882e+02, 2.15985458e+02, 2.49787500e+03, 8.42153809e+03,
          2.80486938e+03, 1.13251575e+03, 1.51620532e+03, 1.40562781e+03,
          9.84497070e+02, 9.18937500e+02, 8.40696655e+02, 4.84152979e+03,
          5.04005518e+03, 3.33066650e+03, 4.07048242e+03, 4.79353564e+03,
          4.49711865e+03, 4.25924951e+03, 2.71181006e+03, 4.26783887e+03,
          5.34825488e+03, 6.07311475e+03, 2.82837085e+03, 6.09964648e+03,
          4.53987744e+03, 6.87750781e+03, 4.49552393e+03 ]
      - [ 1.20324547e+02, 2.86537991e+01, 0., 1.65578995e+01,
          2.31622772e+01, 5.49805183e+01, 1.24494072e+02, 9.61243362e+01,
          2.71394226e+02, 3.27877289e+02, 8.40937958e+01, 1.08348145e+02,
          2.12453445e+02, 1.04103416e+02, 1.66306931e+02, 6.66645889e+01,
          3.41166046e+02, 1.29389572e+02, 3.37194939e+01, 2.28824558e+01,
          1.02072678e+02, 3.64371262e+01, 2.41149567e+02, 4.32181763e+02,
          1.03978235e+03, 5.60317078e+02, 1.12389648e+02, 8.82616272e+01,
          2.88983063e+02, 4.02855606e+01, 2.61147888e+02, 2.66025543e+02,
          3.78685913e+02, 1.46143097e+02, 6.38284683e+01, 2.60094261e+01,
          9.13956146e+01, 4.25850410e+01, 1.32389069e+02, 9.46996918e+01,
          6.55870117e+02, 3.63112152e+02, 5.09230164e+02, 9.17542603e+02,
          1.02431689e+03, 5.84160156e+02, 4.42123749e+02, 2.91138245e+02,
          3.75763110e+03, 2.52912378e+03, 1.03268994e+03, 1.40990222e+03,
          7.04315247e+02, 1.29951489e+03, 1.40868860e+03, 1.38976941e+03,
          2.38834204e+03, 2.00770947e+03, 6.83216492e+02, 3.57747070e+02,
          1.57792542e+03, 3.90467407e+02, 2.00280591e+03, 2.10427148e+03 ]
      - [ 3.08057178e+03, 1.49655603e+03, 1.03695020e+03, 2.66960474e+03,
          2.17870215e+03, 5.70503613e+03, 1.45881653e+03, 3.11522363e+03,
          2.25338403e+03, 8.96850357e+01, 2.02956295e+01, 2.02649731e+03,
          1.49485864e+03, 1.71033027e+04, 3.34897363e+03, 1.66377710e+03,
          3.43335358e+02, 2.10694122e+02, 4.09069489e+02, 5.82583618e+02,
          1.84493738e+03, 1.12030088e+04, 1.35655017e+03, 2.60735596e+02,
          4.57812256e+02, 3.68137024e+02, 5.36903259e+02, 7.46864685e+02,
          1.52758337e+03, 8.81105286e+02, 8.86431946e+02, 3.56541168e+02,
          9.05109497e+02, 2.09227661e+02, 3.82390747e+02, 9.98273804e+02,
          6.46284961e+03, 1.78221270e+04, 2.70372314e+03, 9.71694214e+02,
          1.78761987e+03, 4.87794434e+02, 1.90503638e+03, 2.73864038e+03,
          1.06703555e+04, 6.04431885e+03, 1.13362793e+03, 5.11061493e+02,
          1.70062463e+03, 1.11764819e+03, 6.91040283e+02, 1.35630090e+03,
          1.15844961e+04, 5.54163438e+04, 2.83082349e+03, 7.77537659e+02,
          1.23214478e+03, 8.76290222e+02, 6.28093750e+02, 2.39758447e+03,
          1.26337402e+04, 3.80291172e+04, 4.13530029e+03, 2.79008521e+03 ]
      - [ 5.03640900e+02, 1.04732002e+02, 4.47213602e+00, 3.28407745e+01,
          1.31184143e+02, 1.10504097e+02, 1.05064407e+02, 1.03092896e+02,
          2.61287140e+02, 1.42314774e+02, 7.05135803e+01, 2.42560287e+02,
          7.56982971e+02, 5.77882690e+02, 1.16080920e+03, 3.73021362e+02,
          8.47656433e+02, 1.91132947e+03, 4.13108398e+03, 5.62424414e+03,
